{"learner":{"attributes":{"scikit_learn":"{\"n_estimators\": 100, \"objective\": null, \"max_depth\": null, \"learning_rate\": null, \"verbosity\": null, \"booster\": null, \"tree_method\": null, \"gamma\": null, \"min_child_weight\": null, \"max_delta_step\": null, \"subsample\": null, \"colsample_bytree\": null, \"colsample_bylevel\": null, \"colsample_bynode\": null, \"reg_alpha\": null, \"reg_lambda\": null, \"scale_pos_weight\": null, \"base_score\": null, \"missing\": NaN, \"num_parallel_tree\": null, \"kwargs\": {}, \"random_state\": null, \"n_jobs\": null, \"monotone_constraints\": null, \"interaction_constraints\": null, \"importance_type\": \"gain\", \"gpu_id\": null, \"validate_parameters\": null, \"n_features_in_\": 2, \"evals_result_\": {\"validation_0\": {\"logloss\": [-20.810593, -27.385305, -27.505671, -27.539196, -27.560804, -27.575733, -27.585432, -27.592997, -27.598225, -27.601704, -27.604227, -27.605944, -27.607134, -27.608091, -27.608826, -27.609438, -27.610003, -27.610382, -27.610603, -27.610828, -27.610994, -27.611088, -27.611235, -27.611259, -27.611406, -27.611467, -27.611544, -27.611597, -27.6117, -27.611809, -27.611897, -27.611961, -27.612013, -27.612061, -27.612099, -27.612139, -27.612167, -27.612202, -27.612221, -27.612238, -27.612257, -27.612278, -27.612289, -27.612314, -27.612331, -27.612339, -27.61235, -27.612362, -27.61237, -27.612373, -27.612373, -27.612373, -27.612373, -27.612373, -27.612373, -27.612373, -27.612373, -27.612373, -27.612373, -27.612373, -27.612373, -27.612373, -27.612373, -27.612373, -27.612373, -27.612373, -27.612373, -27.612373, -27.612373, -27.612373, -27.612373, -27.612373, -27.612373, -27.612373, -27.612373, -27.612373, -27.612373, -27.612373, -27.612373, -27.612373, -27.612373, -27.612373, -27.612373, -27.612373, -27.612373, -27.612373, -27.612373, -27.612373, -27.612373, -27.612373, -27.612373, -27.612373, -27.612373, -27.612373, -27.612373, -27.612373, -27.612373, -27.612373, -27.612373, -27.612373]}, \"validation_1\": {\"logloss\": [-20.532333, -26.508675, -26.572245, -26.610165, -26.634298, -26.650946, -26.661589, -26.66923, -26.674833, -26.678427, -26.681244, -26.682617, -26.683462, -26.68371, -26.684061, -26.684752, -26.685055, -26.685411, -26.685499, -26.685608, -26.685591, -26.685543, -26.685595, -26.6856, -26.685617, -26.68574, -26.685701, -26.68574, -26.685787, -26.685932, -26.686047, -26.686129, -26.686193, -26.686211, -26.686193, -26.686232, -26.686243, -26.686258, -26.686237, -26.686226, -26.686201, -26.686226, -26.68622, -26.686216, -26.686232, -26.686228, -26.686228, -26.686234, -26.686234, -26.686228, -26.686228, -26.686228, -26.686228, -26.686228, -26.686228, -26.686228, -26.686228, -26.686228, -26.686228, -26.686228, -26.686228, -26.686228, -26.686228, -26.686228, -26.686228, -26.686228, -26.686228, -26.686228, -26.686228, -26.686228, -26.686228, -26.686228, -26.686228, -26.686228, -26.686228, -26.686228, -26.686228, -26.686228, -26.686228, -26.686228, -26.686228, -26.686228, -26.686228, -26.686228, -26.686228, -26.686228, -26.686228, -26.686228, -26.686228, -26.686228, -26.686228, -26.686228, -26.686228, -26.686228, -26.686228, -26.686228, -26.686228, -26.686228, -26.686228, -26.686228]}}, \"type\": \"XGBModel\"}"},"gradient_booster":{"model":{"gbtree_model_param":{"num_trees":"100","size_leaf_vector":"0"},"tree_info":[0,0,0,0,0,0,0,0,0,0,0,0,0,0,0,0,0,0,0,0,0,0,0,0,0,0,0,0,0,0,0,0,0,0,0,0,0,0,0,0,0,0,0,0,0,0,0,0,0,0,0,0,0,0,0,0,0,0,0,0,0,0,0,0,0,0,0,0,0,0,0,0,0,0,0,0,0,0,0,0,0,0,0,0,0,0,0,0,0,0,0,0,0,0,0,0,0,0,0,0],"trees":[{"base_weights":[8.93E-1,3.3524355E-1,2.1677632E0,-3.98773E-1,9.73262E-1,2.436567E0,1.5789473E-1,1.5833334E0,-4.71519E-1,1.375E0,5.056818E-1,2.48E0,1.65E0,-4.6666667E-1,2E0,-2.5E-1,2E0,1E0,-4.9679488E-1,1.4725275E0,3.5E-1,-3.3333334E-1,2.1875E0,2.5E-1,1.4833333E0,-4E-1,9.166667E-1,1.2E0,-2.5E-1],"categories":[],"categories_nodes":[],"categories_segments":[],"categories_sizes":[],"default_left":[true,true,true,true,true,true,true,true,true,true,false,false,true,false,false,false,false,false,false,true,true,false,false,false,false,false,true,false,false],"id":0,"left_children":[1,3,5,7,9,11,13,15,17,19,-1,-1,21,-1,-1,-1,-1,-1,-1,23,25,-1,-1,-1,-1,-1,27,-1,-1],"loss_changes":[3.5477698E2,1.6383043E2,8.1734924E1,2.4249588E1,3.4431656E1,4.857788E-1,2.2792982E1,5.083333E0,6.373436E0,9.481186E0,0E0,0E0,1.1389582E1,0E0,0E0,0E0,0E0,0E0,0E0,8.313141E-1,4.616667E0,0E0,0E0,0E0,0E0,0E0,2.2833333E0,0E0,0E0],"parents":[2147483647,0,0,1,1,2,2,3,3,4,4,5,5,6,6,7,7,8,8,9,9,12,12,19,19,20,20,26,26],"right_children":[2,4,6,8,10,12,14,16,18,20,-1,-1,22,-1,-1,-1,-1,-1,-1,24,26,-1,-1,-1,-1,-1,28,-1,-1],"split_conditions":[5.9081984E-1,5.11485E-2,-5.6093127E-1,-1.024586E0,1.126966E0,-6.3811207E-1,9.6642005E-1,3.6956525E-1,-6.149145E-1,-1.53548E-1,1.5170455E-1,7.44E-1,7.671118E-1,-1.4E-1,6E-1,-7.5E-2,6E-1,3E-1,-1.4903846E-1,-1.503062E0,1.9621524E-1,-1.0000001E-1,6.5625E-1,7.5E-2,4.4500002E-1,-1.20000005E-1,6.925062E-2,3.6E-1,-7.5E-2],"split_indices":[1,0,0,0,0,0,1,1,1,1,0,0,1,0,0,0,0,0,0,1,0,0,0,0,0,0,1,0,0],"split_type":[0,0,0,0,0,0,0,0,0,0,0,0,0,0,0,0,0,0,0,0,0,0,0,0,0,0,0,0,0],"sum_hessian":[4.99E2,3.48E2,1.51E2,1.62E2,1.86E2,1.33E2,1.8E1,5E0,1.57E2,9.9E1,8.7E1,1.24E2,9E0,1.4E1,4E0,1E0,4E0,2E0,1.55E2,9E1,9E0,2E0,7E0,1E0,8.9E1,4E0,5E0,4E0,1E0],"tree_param":{"num_deleted":"0","num_feature":"2","num_nodes":"29","size_leaf_vector":"0"}},{"base_weights":[6.3164586E-1,2.3900476E-1,1.5290148E0,-2.749941E-1,6.8575776E-1,1.7153004E0,1.3473682E-1,1.1958333E0,-3.2910782E-1,9.6096975E-1,3.4419787E-1,-3.3600003E-1,1.52E0,-2.125E-1,1.52E0,8E-1,-3.487118E-1,1.0251583E0,2.615E-1,2.803977E-1,1.0466295E0,-3.04E-1,6.8916667E-1,9.12E-1,-2.125E-1],"categories":[],"categories_nodes":[],"categories_segments":[],"categories_sizes":[],"default_left":[true,true,true,true,true,false,true,true,true,true,false,false,false,false,false,false,false,true,true,false,false,false,true,false,false],"id":1,"left_children":[1,3,5,7,9,-1,11,13,15,17,-1,-1,-1,-1,-1,-1,-1,19,21,-1,-1,-1,23,-1,-1],"loss_changes":[1.7580653E2,8.0329636E1,3.9248444E1,1.3367047E1,1.7247498E1,0E0,1.2900515E1,3.0622091E0,3.7762947E0,4.356415E0,0E0,0E0,0E0,0E0,0E0,0E0,0E0,1.209671E0,2.6279616E0,0E0,0E0,0E0,1.3993285E0,0E0,0E0],"parents":[2147483647,0,0,1,1,2,2,3,3,4,4,6,6,7,7,8,8,9,9,17,17,18,18,22,22],"right_children":[2,4,6,8,10,-1,12,14,16,18,-1,-1,-1,-1,-1,-1,-1,20,22,-1,-1,-1,24,-1,-1],"split_conditions":[5.9081984E-1,5.11485E-2,-5.6093127E-1,-1.024586E0,1.1974188E0,5.1459014E-1,9.6642005E-1,3.6956525E-1,-6.149145E-1,-1.53548E-1,1.0325936E-1,-1.00800015E-1,4.56E-1,-6.3750006E-2,4.56E-1,2.4000001E-1,-1.0461354E-1,-1.4439924E0,1.9621524E-1,8.411932E-2,3.1398886E-1,-9.12E-2,6.925062E-2,2.736E-1,-6.3750006E-2],"split_indices":[1,0,0,0,0,0,1,1,1,1,0,0,0,0,0,0,0,1,0,0,0,0,1,0,0],"split_type":[0,0,0,0,0,0,0,0,0,0,0,0,0,0,0,0,0,0,0,0,0,0,0,0,0],"sum_hessian":[4.99E2,3.48E2,1.51E2,1.62E2,1.86E2,1.33E2,1.8E1,5E0,1.57E2,1.02E2,8.4E1,1.4E1,4E0,1E0,4E0,2E0,1.55E2,9.3E1,9E0,3E0,9E1,4E0,5E0,4E0,1E0],"tree_param":{"num_deleted":"0","num_feature":"2","num_nodes":"25","size_leaf_vector":"0"}},{"base_weights":[4.46187E-1,1.7059176E-1,1.0760326E0,-1.8925883E-1,4.8334605E-1,1.2045505E0,1.13010526E-1,9.024583E-1,-2.295186E-1,6.7769593E-1,2.4215329E-1,1.2314786E0,7.4749386E-1,-2.4192001E-1,1.1552E0,-1.80625E-1,1.1552E0,6.4000005E-1,-2.4476884E-1,7.218461E-1,1.94915E-1,-6.097267E-1,1.1630149E0,2.1730824E-1,7.360912E-1,-2.3104E-1,5.173917E-1,6.9312E-1,-1.80625E-1],"categories":[],"categories_nodes":[],"categories_segments":[],"categories_sizes":[],"default_left":[true,true,true,true,true,true,true,true,true,true,false,false,true,false,false,false,false,false,false,true,true,false,false,false,false,false,true,false,false],"id":2,"left_children":[1,3,5,7,9,11,13,15,17,19,-1,-1,21,-1,-1,-1,-1,-1,-1,23,25,-1,-1,-1,-1,-1,27,-1,-1],"loss_changes":[8.6607666E1,3.9369617E1,1.8676224E1,7.3713536E0,8.6016655E0,7.2869873E-1,7.307658E0,1.8511E0,2.251789E0,2.0547295E0,0E0,0E0,6.3486576E0,0E0,0E0,0E0,0E0,0E0,0E0,5.1564026E-1,1.4931437E0,0E0,0E0,0E0,0E0,0E0,8.611628E-1,0E0,0E0],"parents":[2147483647,0,0,1,1,2,2,3,3,4,4,5,5,6,6,7,7,8,8,9,9,12,12,19,19,20,20,26,26],"right_children":[2,4,6,8,10,12,14,16,18,20,-1,-1,22,-1,-1,-1,-1,-1,-1,24,26,-1,-1,-1,-1,-1,28,-1,-1],"split_conditions":[5.9081984E-1,5.11485E-2,-5.6093127E-1,-1.024586E0,1.1974188E0,-6.3811207E-1,9.6642005E-1,3.6956525E-1,-6.149145E-1,-1.53548E-1,7.264599E-2,3.694436E-1,7.671118E-1,-7.257601E-2,3.4656E-1,-5.4187503E-2,3.4656E-1,1.9200002E-1,-7.343066E-2,-1.4439924E0,1.9621524E-1,-1.8291803E-1,3.489045E-1,6.5192476E-2,2.2082737E-1,-6.9312006E-2,6.925062E-2,2.07936E-1,-5.4187503E-2],"split_indices":[1,0,0,0,0,0,1,1,1,1,0,0,1,0,0,0,0,0,0,1,0,0,0,0,0,0,1,0,0],"split_type":[0,0,0,0,0,0,0,0,0,0,0,0,0,0,0,0,0,0,0,0,0,0,0,0,0,0,0,0,0],"sum_hessian":[4.99E2,3.48E2,1.51E2,1.62E2,1.86E2,1.33E2,1.8E1,5E0,1.57E2,1.02E2,8.4E1,1.24E2,9E0,1.4E1,4E0,1E0,4E0,2E0,1.55E2,9.3E1,9E0,2E0,7E0,3E0,9E1,4E0,5E0,4E0,1E0],"tree_param":{"num_deleted":"0","num_feature":"2","num_nodes":"29","size_leaf_vector":"0"}},{"base_weights":[3.1565782E-1,1.2186135E-1,7.58548E-1,-1.2996006E-1,3.4071177E-1,8.4718114E-1,9.3527585E-2,6.804496E-1,-1.5991257E-1,4.7798383E-1,1.7036198E-1,8.6499065E-1,5.3984433E-1,-1.7418239E-1,8.77952E-1,-1.5353125E-1,8.77952E-1,5.12E-1,-1.718089E-1,5.0833505E-1,1.4488414E-1,-4.877814E-1,8.577235E-1,1.6841389E-1,5.1769054E-1,-1.755904E-1,3.8779888E-1,5.267712E-1,-1.5353125E-1],"categories":[],"categories_nodes":[],"categories_segments":[],"categories_sizes":[],"default_left":[true,true,true,true,true,true,true,true,true,true,false,false,true,false,false,false,false,false,false,true,true,false,false,false,false,false,true,false,false],"id":3,"left_children":[1,3,5,7,9,11,13,15,17,19,-1,-1,21,-1,-1,-1,-1,-1,-1,23,25,-1,-1,-1,-1,-1,27,-1,-1],"loss_changes":[4.2822838E1,1.9278097E1,8.880074E0,4.065443E0,4.2914257E0,2.6649475E-1,4.1428905E0,1.1230726E0,1.350905E0,9.6767807E-1,0E0,0E0,3.684989E0,0E0,0E0,0E0,0E0,0E0,0E0,2.1174622E-1,8.465737E-1,0E0,0E0,0E0,0E0,0E0,5.322551E-1,0E0,0E0],"parents":[2147483647,0,0,1,1,2,2,3,3,4,4,5,5,6,6,7,7,8,8,9,9,12,12,19,19,20,20,26,26],"right_children":[2,4,6,8,10,12,14,16,18,20,-1,-1,22,-1,-1,-1,-1,-1,-1,24,26,-1,-1,-1,-1,-1,28,-1,-1],"split_conditions":[5.9081984E-1,5.11485E-2,-5.6093127E-1,-1.024586E0,1.1974188E0,-6.3811207E-1,9.6642005E-1,3.6956525E-1,-6.149145E-1,-1.53548E-1,5.1108595E-2,2.594972E-1,7.671118E-1,-5.2254718E-2,2.633856E-1,-4.6059377E-2,2.633856E-1,1.536E-1,-5.1542673E-2,-1.4439924E0,1.9621524E-1,-1.4633442E-1,2.5731707E-1,5.052417E-2,1.5530717E-1,-5.267712E-2,6.925062E-2,1.5803136E-1,-4.6059377E-2],"split_indices":[1,0,0,0,0,0,1,1,1,1,0,0,1,0,0,0,0,0,0,1,0,0,0,0,0,0,1,0,0],"split_type":[0,0,0,0,0,0,0,0,0,0,0,0,0,0,0,0,0,0,0,0,0,0,0,0,0,0,0,0,0],"sum_hessian":[4.99E2,3.48E2,1.51E2,1.62E2,1.86E2,1.33E2,1.8E1,5E0,1.57E2,1.02E2,8.4E1,1.24E2,9E0,1.4E1,4E0,1E0,4E0,2E0,1.55E2,9.3E1,9E0,2E0,7E0,3E0,9E1,4E0,5E0,4E0,1E0],"tree_param":{"num_deleted":"0","num_feature":"2","num_nodes":"29","size_leaf_vector":"0"}},{"base_weights":[2.2339493E-1,8.71242E-2,5.3481E-1,-9.69935E-2,2.3472852E-1,5.769262E-1,-1.2093234E-1,5.125358E-1,-1.2057086E-1,3.2136077E-1,1.1985467E-1,6.0756946E-1,3.449613E-1,-1.3050157E-1,6.672436E-1,3.5836804E-1,4.199894E-2,-2.622972E-1,5.805748E-1,1.3052076E-1,3.6425126E-1,-1.2808245E-1,2.9012123E-1,-3.9022514E-1,-1.00776955E-1,1.9618967E-1,6.282899E-1,4.003461E-1,-1.3050157E-1,3.6146915E-1,-6.7184635E-2,6.8397933E-1,2.332284E-1],"categories":[],"categories_nodes":[],"categories_segments":[],"categories_sizes":[],"default_left":[true,true,true,true,true,true,false,true,false,true,false,false,true,false,false,true,true,true,true,false,false,false,true,false,false,true,true,false,false,false,false,false,false],"id":4,"left_children":[1,3,5,7,9,11,-1,13,-1,15,-1,-1,17,-1,-1,19,21,23,25,-1,-1,-1,27,-1,-1,29,31,-1,-1,-1,-1,-1,-1],"loss_changes":[2.1171783E1,9.507389E0,4.2676125E0,2.3036876E0,1.892129E0,8.0687714E-1,0E0,6.839738E-1,0E0,1.1221743E0,0E0,0E0,2.8707714E0,0E0,0E0,8.2484245E-2,6.2797326E-1,8.465201E-2,1.3350964E-1,0E0,0E0,0E0,3.304243E-1,0E0,0E0,1.5487628E-1,1.0448551E-1,0E0,0E0,0E0,0E0,0E0,0E0],"parents":[2147483647,0,0,1,1,2,2,3,3,4,4,5,5,7,7,9,9,12,12,15,15,16,16,17,17,18,18,22,22,25,25,26,26],"right_children":[2,4,6,8,10,12,-1,14,-1,16,-1,-1,18,-1,-1,20,22,24,26,-1,-1,-1,28,-1,-1,30,32,-1,-1,-1,-1,-1,-1],"split_conditions":[5.9081984E-1,-1.5884582E-2,-4.2429483E-1,-1.024586E0,1.1974188E0,-6.3811207E-1,-3.6279704E-2,3.6956525E-1,-3.617126E-2,-1.614736E-1,3.59564E-2,1.8227084E-1,7.671118E-1,-3.9150473E-2,2.001731E-1,-1.4439924E0,1.9621524E-1,-5.7735527E-1,8.21806E-1,3.915623E-2,1.0927538E-1,-3.8424738E-2,6.925062E-2,-1.17067546E-1,-3.0233087E-2,-5.8185613E-1,-4.6355987E-1,1.20103836E-1,-3.9150473E-2,1.0844075E-1,-2.015539E-2,2.051938E-1,6.996852E-2],"split_indices":[1,0,0,0,0,0,0,1,0,1,0,0,1,0,0,1,0,0,1,0,0,0,1,0,0,0,0,0,0,0,0,0,0],"split_type":[0,0,0,0,0,0,0,0,0,0,0,0,0,0,0,0,0,0,0,0,0,0,0,0,0,0,0,0,0,0,0,0,0],"sum_hessian":[4.99E2,3.48E2,1.51E2,1.55E2,1.93E2,1.42E2,9E0,5E0,1.5E2,1.09E2,8.4E1,1.24E2,1.8E1,1E0,4E0,9.6E1,1.3E1,5E0,1.3E1,3E0,9.3E1,8E0,5E0,2E0,3E0,2E0,1.1E1,4E0,1E0,1E0,1E0,9E0,2E0],"tree_param":{"num_deleted":"0","num_feature":"2","num_nodes":"33","size_leaf_vector":"0"}},{"base_weights":[1.578043E-1,6.1994884E-2,3.7674955E-1,-6.709512E-2,1.6547966E-1,4.0663454E-1,-8.82806E-2,3.856121E-1,-8.463915E-2,2.2668858E-1,8.43213E-2,4.2675683E-1,2.5284907E-1,-1.1092633E-1,5.0710505E-1,2.5238788E-1,3.243701E-2,-2.0815814E-1,4.3236294E-1,1.0115358E-1,2.561384E-1,-6.244256E-2,2.8524658E-1,-3.121801E-1,-7.810214E-2,2.6416853E-1,5.254877E-1,2.6177073E-1,1.628697E-1,-9.3927145E-2,5.2825373E-2,4.3354625E-1,-1.0618389E-1],"categories":[],"categories_nodes":[],"categories_segments":[],"categories_sizes":[],"default_left":[true,true,true,true,true,true,false,true,false,true,false,false,true,false,false,true,true,true,true,false,true,true,false,false,false,true,false,false,false,false,false,false,false],"id":5,"left_children":[1,3,5,7,9,11,-1,13,-1,15,-1,-1,17,-1,-1,19,21,23,25,-1,27,29,-1,-1,-1,31,-1,-1,-1,-1,-1,-1,-1],"loss_changes":[1.0465153E1,4.6733418E0,2.148304E0,1.2716379E0,9.446025E-1,3.3461E-1,0E0,4.182068E-1,0E0,5.409479E-1,0E0,0E0,1.6623864E0,0E0,0E0,2.9109955E-2,3.5362202E-1,5.6790173E-2,8.046579E-2,0E0,6.7458153E-3,4.4882525E-2,0E0,0E0,0E0,4.8514175E-1,0E0,0E0,0E0,0E0,0E0,0E0,0E0],"parents":[2147483647,0,0,1,1,2,2,3,3,4,4,5,5,7,7,9,9,12,12,15,15,16,16,17,17,18,18,20,20,21,21,25,25],"right_children":[2,4,6,8,10,12,-1,14,-1,16,-1,-1,18,-1,-1,20,22,24,26,-1,28,30,-1,-1,-1,32,-1,-1,-1,-1,-1,-1,-1],"split_conditions":[5.9081984E-1,-1.5884582E-2,-4.2429483E-1,-1.024586E0,1.1974188E0,-6.3811207E-1,-2.6484182E-2,3.6956525E-1,-2.5391744E-2,-1.614736E-1,2.529639E-2,1.2802705E-1,7.671118E-1,-3.32779E-2,1.5213153E-1,-1.4439924E0,2.9862198E-1,-5.7735527E-1,9.4867074E-1,3.0346075E-2,-3.184141E-1,1.9621524E-1,8.557398E-2,-9.365404E-2,-2.3430644E-2,-5.5737615E-1,1.5764633E-1,7.853122E-2,4.8860915E-2,-2.8178144E-2,1.5847612E-2,1.3006388E-1,-3.1855166E-2],"split_indices":[1,0,0,0,0,0,0,1,0,1,0,0,1,0,0,1,0,0,1,0,1,0,0,0,0,0,0,0,0,0,0,0,0],"split_type":[0,0,0,0,0,0,0,0,0,0,0,0,0,0,0,0,0,0,0,0,0,0,0,0,0,0,0,0,0,0,0,0,0],"sum_hessian":[4.99E2,3.48E2,1.51E2,1.55E2,1.93E2,1.42E2,9E0,5E0,1.5E2,1.09E2,8.4E1,1.24E2,1.8E1,1E0,4E0,9.6E1,1.3E1,5E0,1.3E1,3E0,9.3E1,1E1,3E0,2E0,3E0,6E0,7E0,8.6E1,7E0,8E0,2E0,4E0,2E0],"tree_param":{"num_deleted":"0","num_feature":"2","num_nodes":"33","size_leaf_vector":"0"}},{"base_weights":[1.1164312E-1,4.4398524E-2,2.6530576E-1,-4.6367474E-2,1.1715676E-1,2.8650996E-1,-6.444484E-2,2.897374E-1,-5.9415564E-2,1.607818E-1,5.932251E-2,1.9431078E-1,3.04397E-1,-9.428738E-2,3.8539982E-1,1.7829764E-1,2.7937574E-2,2.8778234E-1,-1.652248E-1,7.839401E-2,1.8065208E-1,-4.4830743E-2,2.2106606E-1,-2.4974407E-1,-6.0529154E-2,2.843956E-1,1.7530553E-1,-6.88799E-2,4.2260315E-2],"categories":[],"categories_nodes":[],"categories_segments":[],"categories_sizes":[],"default_left":[true,true,true,true,true,true,false,true,false,true,false,true,false,false,false,true,true,false,true,false,true,true,false,false,false,false,false,false,false],"id":6,"left_children":[1,3,5,7,9,11,-1,13,-1,15,-1,17,-1,-1,-1,19,21,-1,23,-1,25,27,-1,-1,-1,-1,-1,-1,-1],"loss_changes":[5.154712E0,2.310219E0,1.0812626E0,7.013571E-1,4.7992802E-1,1.7668438E-1,0E0,2.567588E-1,0E0,2.509756E-1,0E0,9.2131406E-1,0E0,0E0,0E0,8.653879E-3,2.0666145E-1,0E0,3.7975997E-2,0E0,2.282858E-3,2.595002E-2,0E0,0E0,0E0,0E0,0E0,0E0,0E0],"parents":[2147483647,0,0,1,1,2,2,3,3,4,4,5,5,7,7,9,9,11,11,15,15,16,16,18,18,20,20,21,21],"right_children":[2,4,6,8,10,12,-1,14,-1,16,-1,18,-1,-1,-1,20,22,-1,24,-1,26,28,-1,-1,-1,-1,-1,-1,-1],"split_conditions":[5.9081984E-1,-1.5884582E-2,-4.2429483E-1,-1.024586E0,1.1974188E0,7.551024E-1,-1.9333452E-2,3.6956525E-1,-1.782467E-2,-1.614736E-1,1.7796753E-2,-6.538315E-1,9.13191E-2,-2.8286215E-2,1.1561995E-1,-1.4439924E0,2.9862198E-1,8.6334705E-2,-5.7735527E-1,2.3518205E-2,3.228737E-3,1.9621524E-1,6.631982E-2,-7.4923225E-2,-1.8158747E-2,8.5318685E-2,5.2591663E-2,-2.0663971E-2,1.2678095E-2],"split_indices":[1,0,0,0,0,1,0,1,0,1,0,0,0,0,0,1,0,0,0,0,0,0,0,0,0,0,0,0,0],"split_type":[0,0,0,0,0,0,0,0,0,0,0,0,0,0,0,0,0,0,0,0,0,0,0,0,0,0,0,0,0],"sum_hessian":[4.99E2,3.48E2,1.51E2,1.55E2,1.93E2,1.42E2,9E0,5E0,1.5E2,1.09E2,8.4E1,2.5E1,1.17E2,1E0,4E0,9.6E1,1.3E1,2E1,5E0,3E0,9.3E1,1E1,3E0,2E0,3E0,2E0,9.1E1,8E0,2E0],"tree_param":{"num_deleted":"0","num_feature":"2","num_nodes":"29","size_leaf_vector":"0"}},{"base_weights":[7.88948E-2,3.829166E-2,2.0303376E-1,-7.599902E-3,8.52055E-2,2.138518E-1,-4.355994E-2,1.8770137E-1,-2.7644604E-2,1.2025187E-1,4.173513E-2,2.1537235E-1,8.377293E-2,-6.1065633E-2,2.4152581E-1,2.2751649E-1,-3.1909566E-2,1.23885505E-1,-1.2518919E-1,-1.3190086E-1,2.5756025E-1,-8.014427E-2,-2.799133E-2,-4.3450844E-2,6.3922405E-2,5.8973975E-2,1.3188511E-1,-1.0401915E-1,-4.157108E-2,1.9621524E-1,-1.04871325E-1,1.20537534E-1,-6.363522E-2,1.259599E-1,2.0742157E-1],"categories":[],"categories_nodes":[],"categories_segments":[],"categories_sizes":[],"default_left":[true,true,true,true,true,true,false,true,true,true,false,false,true,true,false,false,true,true,false,false,false,false,false,true,true,true,true,false,false,false,false,false,false,false,false],"id":7,"left_children":[1,3,5,7,9,11,-1,13,15,17,-1,-1,19,21,-1,-1,23,25,-1,-1,-1,-1,-1,27,29,31,33,-1,-1,-1,-1,-1,-1,-1,-1],"loss_changes":[2.512441E0,8.1446254E-1,3.374381E-1,7.5682205E-1,2.7987182E-1,5.297184E-3,0E0,2.5576437E-1,1.977042E-1,1.0736883E-1,0E0,0E0,1.4641653E-1,2.8070528E-4,0E0,0E0,1.9411953E-1,4.5187473E-2,0E0,0E0,0E0,0E0,0E0,1.3323188E-2,4.4485116E-1,1.0579778E-1,1.4154315E-2,0E0,0E0,0E0,0E0,0E0,0E0,0E0,0E0],"parents":[2147483647,0,0,1,1,2,2,3,3,4,4,5,5,7,7,8,8,9,9,12,12,13,13,16,16,17,17,23,23,24,24,25,25,26,26],"right_children":[2,4,6,8,10,12,-1,14,16,18,-1,-1,20,22,-1,-1,24,26,-1,-1,-1,-1,-1,28,30,32,34,-1,-1,-1,-1,-1,-1,-1,-1],"split_conditions":[7.551024E-1,5.11485E-2,-4.2429483E-1,-9.3758166E-1,1.1974188E0,-4.6355987E-1,-1.3067982E-2,3.6956525E-1,-6.149145E-1,6.925062E-2,1.252054E-2,6.461171E-2,-4.5033365E-1,-1.0331907E0,7.2457746E-2,6.825495E-2,6.5131366E-1,1.9621524E-1,-3.7556756E-2,-3.957026E-2,7.726808E-2,-2.4043282E-2,-8.397399E-3,-2.944408E-1,-6.538315E-1,-1.8740611E-1,-1.4338577E-1,-3.1205745E-2,-1.2471325E-2,5.8864575E-2,-3.14614E-2,3.6161263E-2,-1.9090567E-2,3.7787974E-2,6.2226474E-2],"split_indices":[1,0,0,0,0,0,0,1,1,1,0,0,0,0,0,0,1,0,0,0,0,0,0,1,0,1,1,0,0,0,0,0,0,0,0],"split_type":[0,0,0,0,0,0,0,0,0,0,0,0,0,0,0,0,0,0,0,0,0,0,0,0,0,0,0,0,0,0,0,0,0,0,0],"sum_hessian":[4.99E2,3.77E2,1.22E2,1.91E2,1.86E2,1.17E2,5E0,1.7E1,1.74E2,1.02E2,8.4E1,1.15E2,2E0,3E0,1.4E1,2E0,1.72E2,1.01E2,1E0,1E0,1E0,1E0,2E0,1.54E2,1.8E1,1.2E1,8.9E1,3E0,1.51E2,1E1,8E0,8E0,4E0,8.5E1,4E0],"tree_param":{"num_deleted":"0","num_feature":"2","num_nodes":"35","size_leaf_vector":"0"}},{"base_weights":[5.577295E-2,2.857631E-2,1.4760914E-1,-9.2746323E-4,6.013611E-2,1.5265815E-1,-2.9402956E-2,1.2704854E-1,-1.5770383E-2,8.494847E-2,2.936188E-2,1.4477831E-1,2.0560198E-1,-4.6588026E-2,1.7064467E-1,-2.6811143E-2,5.1080722E-2,8.786778E-2,-1.0641081E-1,9.420371E-2,2.4952564E-1,-6.812263E-2,-2.4173714E-2,2.3493767E-1,1.3279009E-1,1.820132E-1,-3.0705051E-2,1.4346027E-1,-5.2334234E-2,3.2210574E-2,9.22619E-2,1.7381251E-1,-1.1211573E-1,-2.9035814E-2,-8.604246E-2,-7.690564E-2,2.3611486E-3,7.854259E-2,-4.53401E-2,8.91681E-2,1.899929E-1],"categories":[],"categories_nodes":[],"categories_segments":[],"categories_sizes":[],"default_left":[true,true,true,true,true,true,false,true,true,true,false,false,true,true,true,true,true,true,false,true,false,false,false,false,false,false,true,false,true,true,true,false,false,false,false,false,false,false,false,false,false],"id":8,"left_children":[1,3,5,7,9,11,-1,13,15,17,-1,-1,19,21,23,25,27,29,-1,31,-1,-1,-1,-1,-1,-1,33,-1,35,37,39,-1,-1,-1,-1,-1,-1,-1,-1,-1,-1],"loss_changes":[1.2445997E0,3.604043E-1,1.06374264E-1,3.838107E-1,1.402955E-1,1.6541243E-2,0E0,1.6691756E-1,1.3496327E-1,6.688976E-2,0E0,0E0,3.5210013E-2,7.666396E-4,1.0176927E-2,1.32439E-1,2.55897E-1,2.1973789E-2,0E0,1.0161133E-1,0E0,0E0,0E0,0E0,0E0,0E0,1.1726856E-2,0E0,1.7652843E-2,3.589884E-2,1.148051E-2,0E0,0E0,0E0,0E0,0E0,0E0,0E0,0E0,0E0,0E0],"parents":[2147483647,0,0,1,1,2,2,3,3,4,4,5,5,7,7,8,8,9,9,12,12,13,13,14,14,15,15,16,16,17,17,19,19,26,26,28,28,29,29,30,30],"right_children":[2,4,6,8,10,12,-1,14,16,18,-1,-1,20,22,24,26,28,30,-1,32,-1,-1,-1,-1,-1,-1,34,-1,36,38,40,-1,-1,-1,-1,-1,-1,-1,-1,-1,-1],"split_conditions":[8.0332094E-1,5.11485E-2,-4.2429483E-1,-9.1883266E-1,1.1974188E0,-6.2802273E-1,-8.820888E-3,3.6956525E-1,6.5131366E-1,6.925062E-2,8.808564E-3,4.3433495E-2,9.4867074E-1,-1.0331907E0,5.4731274E-1,-6.149145E-1,-6.538315E-1,1.4236835E-1,-3.1923246E-2,-5.1781106E-1,7.48577E-2,-2.043679E-2,-7.2521144E-3,7.04813E-2,3.983703E-2,5.460396E-2,1.2556227E-2,4.3038085E-2,7.671118E-1,-2.2048284E-1,1.1937883E0,5.2143756E-2,-3.3634722E-2,-8.710745E-3,-2.5812738E-2,-2.3071691E-2,7.083446E-4,2.3562778E-2,-1.360203E-2,2.6750432E-2,5.6997873E-2],"split_indices":[1,0,0,0,0,0,0,1,1,1,0,0,1,0,1,1,0,0,0,0,0,0,0,0,0,0,0,0,1,1,0,0,0,0,0,0,0,0,0,0,0],"split_type":[0,0,0,0,0,0,0,0,0,0,0,0,0,0,0,0,0,0,0,0,0,0,0,0,0,0,0,0,0,0,0,0,0,0,0,0,0,0,0,0,0],"sum_hessian":[4.99E2,3.86E2,1.13E2,2E2,1.86E2,1.1E2,3E0,2E1,1.8E2,1.02E2,8.4E1,9.9E1,1.1E1,4E0,1.6E1,1.55E2,2.5E1,1.01E2,1E0,4E0,7E0,1E0,3E0,4E0,1.2E1,2E0,1.53E2,1.3E1,1.2E1,8E0,9.3E1,3E0,1E0,1.5E2,3E0,8E0,4E0,5E0,3E0,9.2E1,1E0],"tree_param":{"num_deleted":"0","num_feature":"2","num_nodes":"41","size_leaf_vector":"0"}},{"base_weights":[3.968499E-2,2.050465E-2,1.0444908E-1,-3.5377925E-5,4.2472783E-2,1.0809319E-1,-2.2787292E-2,9.8215885E-2,-1.0236136E-2,6.0063776E-2,2.0656956E-2,1.0177921E-1,1.5170191E-1,-4.212086E-2,1.2716158E-1,-1.8662164E-2,3.913877E-2,6.242615E-2,-9.0449184E-2,7.9588585E-2,1.9184163E-1,-5.7904236E-2,-1.755832E-2,1.7855263E-1,9.515184E-2,1.4561057E-1,-2.1721235E-2,9.635216E-2,-5.2839987E-2,5.984633E-2,1.6149396E-1,1.3362566E-1,-9.529837E-2,-6.980628E-2,-2.0312935E-2,1.0369012E-1,2.754499E-2,-2.4653715E-3,-1.1279645E-1,2.8440299E-2,6.37613E-2],"categories":[],"categories_nodes":[],"categories_segments":[],"categories_sizes":[],"default_left":[true,true,true,true,true,true,false,true,true,true,false,false,true,true,true,true,true,true,false,true,false,false,false,false,false,false,true,true,true,true,false,false,false,false,false,false,false,false,false,false,false],"id":9,"left_children":[1,3,5,7,9,11,-1,13,15,17,-1,-1,19,21,23,25,27,29,-1,31,-1,-1,-1,-1,-1,-1,33,35,37,39,-1,-1,-1,-1,-1,-1,-1,-1,-1,-1,-1],"loss_changes":[6.189569E-1,1.7462598E-1,5.532074E-2,2.0245504E-1,7.0522755E-2,1.5123129E-2,0E0,8.253689E-2,7.6864704E-2,4.2269886E-2,0E0,0E0,1.9466907E-2,5.3401804E-4,9.33063E-3,8.2058795E-2,1.471765E-1,1.6404033E-2,0E0,6.943658E-2,0E0,0E0,0E0,0E0,0E0,0E0,9.078339E-3,5.7272166E-3,3.2945033E-2,1.0604918E-2,0E0,0E0,0E0,0E0,0E0,0E0,0E0,0E0,0E0,0E0,0E0],"parents":[2147483647,0,0,1,1,2,2,3,3,4,4,5,5,7,7,8,8,9,9,12,12,13,13,14,14,15,15,16,16,17,17,19,19,26,26,27,27,28,28,29,29],"right_children":[2,4,6,8,10,12,-1,14,16,18,-1,-1,20,22,24,26,28,30,-1,32,-1,-1,-1,-1,-1,-1,34,36,38,40,-1,-1,-1,-1,-1,-1,-1,-1,-1,-1,-1],"split_conditions":[8.0332094E-1,5.11485E-2,-4.2429483E-1,-9.3758166E-1,1.1974188E0,-6.2802273E-1,-6.8361876E-3,3.6956525E-1,6.5131366E-1,6.925062E-2,6.197087E-3,3.0533763E-2,9.677442E-1,-1.0331907E0,5.4731274E-1,-6.149145E-1,-6.2550056E-1,1.1937883E0,-2.7134756E-2,-5.1781106E-1,5.755249E-2,-1.737127E-2,-5.267496E-3,5.356579E-2,2.8545553E-2,4.368317E-2,-2.944408E-1,-6.538315E-1,7.4243575E-1,1.9621524E-1,4.844819E-2,4.00877E-2,-2.8589513E-2,-2.0941883E-2,-6.0938806E-3,3.1107036E-2,8.263498E-3,-7.396115E-4,-3.3838935E-2,8.53209E-3,1.9128392E-2],"split_indices":[1,0,0,0,0,0,0,1,1,1,0,0,1,0,1,1,0,0,0,0,0,0,0,0,0,0,1,0,1,0,0,0,0,0,0,0,0,0,0,0,0],"split_type":[0,0,0,0,0,0,0,0,0,0,0,0,0,0,0,0,0,0,0,0,0,0,0,0,0,0,0,0,0,0,0,0,0,0,0,0,0,0,0,0,0],"sum_hessian":[4.99E2,3.86E2,1.13E2,2E2,1.86E2,1.1E2,3E0,1.8E1,1.82E2,1.02E2,8.4E1,9.9E1,1.1E1,3E0,1.5E1,1.56E2,2.6E1,1.01E2,1E0,5E0,6E0,1E0,2E0,4E0,1.1E1,2E0,1.54E2,1.6E1,1E1,1E2,1E0,4E0,1E0,3E0,1.51E2,1.4E1,2E0,6E0,4E0,1.2E1,8.8E1],"tree_param":{"num_deleted":"0","num_feature":"2","num_nodes":"41","size_leaf_vector":"0"}},{"base_weights":[2.823714E-2,1.3807198E-2,7.235324E-2,-2.691524E-3,2.9469345E-2,7.6120645E-2,-1.3797884E-2,7.1549185E-2,-1.0629865E-2,4.0743344E-2,1.4532768E-2,7.166207E-2,1.0412275E-1,-1.766015E-2,-4.048901E-3,-3.514429E-2,9.523083E-2,7.258596E-3,-1.703592E-2,4.252781E-2,-7.68818E-2,5.751781E-2,1.4251086E-1,-4.9218602E-2,-1.4046657E-2,1.3570003E-1,6.817839E-2,-1.43324025E-2,7.5297356E-2,-1.3749265E-2,-7.938193E-2,4.037955E-2,1.3726985E-1,1.3788478E-1,-1.2238871E-1,4.783805E-2,1.7081237E-1,1.2580919E-2,-1.4306883E-2,-1.5491472E-1,-2.8868495E-3,1.847694E-2,4.4847783E-2],"categories":[],"categories_nodes":[],"categories_segments":[],"categories_sizes":[],"default_left":[true,true,true,true,true,true,true,true,true,true,false,false,true,false,false,true,true,true,true,true,false,true,true,false,false,false,false,false,false,true,true,true,false,false,false,false,false,false,false,false,false,false,false],"id":10,"left_children":[1,3,5,7,9,11,13,15,17,19,-1,-1,21,-1,-1,23,25,27,29,31,-1,33,35,-1,-1,-1,-1,-1,-1,37,39,41,-1,-1,-1,-1,-1,-1,-1,-1,-1,-1,-1],"loss_changes":[3.172973E-1,9.775656E-2,4.0971935E-2,1.0978995E-1,3.2076508E-2,7.2705746E-3,1.544148E-4,4.8827E-2,1.9375527E-2,2.6358426E-2,0E0,0E0,1.6850129E-2,0E0,0E0,4.963819E-4,7.1700513E-3,6.7185305E-2,2.4317376E-2,1.6641915E-2,0E0,1.3254388E-1,1.0584354E-2,0E0,0E0,0E0,0E0,0E0,0E0,1.9271728E-3,3.422011E-2,9.740874E-3,0E0,0E0,0E0,0E0,0E0,0E0,0E0,0E0,0E0,0E0,0E0],"parents":[2147483647,0,0,1,1,2,2,3,3,4,4,5,5,6,6,7,7,8,8,9,9,12,12,15,15,16,16,17,17,18,18,19,19,21,21,22,22,29,29,30,30,31,31],"right_children":[2,4,6,8,10,12,14,16,18,20,-1,-1,22,-1,-1,24,26,28,30,32,-1,34,36,-1,-1,-1,-1,-1,-1,38,40,42,-1,-1,-1,-1,-1,-1,-1,-1,-1,-1,-1],"split_conditions":[7.551024E-1,-1.5884582E-2,-4.2429483E-1,-9.3758166E-1,1.1974188E0,-6.37362E-1,-2.7823776E-1,3.6956525E-1,-6.7235804E-1,1.1031372E-1,4.3598306E-3,2.149862E-2,9.677442E-1,-5.2980455E-3,-1.2146704E-3,-1.0331907E0,5.4731274E-1,6.1945873E-1,7.0082086E-1,1.1937883E0,-2.3064543E-2,-5.5737615E-1,-5.515198E-1,-1.4765581E-2,-4.213997E-3,4.071001E-2,2.0453518E-2,-4.2997207E-3,2.2589207E-2,-3.0533388E-1,-5.7735527E-1,1.9621524E-1,4.1180957E-2,4.1365437E-2,-3.6716614E-2,1.4351415E-2,5.124371E-2,3.7742758E-3,-4.2920653E-3,-4.647442E-2,-8.6605485E-4,5.5430825E-3,1.3454336E-2],"split_indices":[1,0,0,0,0,0,0,1,0,1,0,0,1,0,0,0,1,1,1,0,0,0,0,0,0,0,0,0,0,1,0,0,0,0,0,0,0,0,0,0,0,0,0],"split_type":[0,0,0,0,0,0,0,0,0,0,0,0,0,0,0,0,0,0,0,0,0,0,0,0,0,0,0,0,0,0,0,0,0,0,0,0,0,0,0,0,0,0,0],"sum_hessian":[4.99E2,3.77E2,1.22E2,1.84E2,1.93E2,1.17E2,5E0,1.7E1,1.67E2,1.09E2,8.4E1,1.04E2,1.3E1,3E0,2E0,3E0,1.4E1,4.4E1,1.23E2,1.08E2,1E0,7E0,6E0,1E0,2E0,4E0,1E1,3.4E1,1E1,1.18E2,5E0,1.07E2,1E0,5E0,2E0,2E0,4E0,2E0,1.16E2,2E0,3E0,1.9E1,8.8E1],"tree_param":{"num_deleted":"0","num_feature":"2","num_nodes":"43","size_leaf_vector":"0"}},{"base_weights":[2.0044625E-2,9.808134E-3,5.1340144E-2,-1.4194703E-3,2.1283492E-2,5.406188E-2,-1.0743972E-2,5.2428026E-2,-6.949959E-3,3.0203441E-2,1.02242185E-2,5.235131E-2,1.2709916E-1,-1.3686617E-2,-3.239121E-3,-2.93459E-2,7.07392E-2,1.1279305E-1,-8.986254E-3,3.1780917E-2,-6.5349534E-2,5.3882707E-2,-6.264531E-2,-4.183581E-2,-1.1237326E-2,1.03132054E-1,4.9584344E-2,5.4874504E-3,-1.3965559E-2,2.9785097E-2,1.1667937E-1,5.0368138E-2,8.0144934E-2,-1.0155531E-2,5.476171E-2,-1.1458166E-2,-6.345743E-2,3.122888E-2,-2.7788162E-2,1.2543964E-1,5.854203E-2],"categories":[],"categories_nodes":[],"categories_segments":[],"categories_sizes":[],"default_left":[true,true,true,true,true,true,true,true,true,true,false,true,false,false,false,true,true,false,true,true,false,true,false,false,false,false,false,true,true,true,false,false,true,false,false,false,false,false,false,false,false],"id":11,"left_children":[1,3,5,7,9,11,13,15,17,19,-1,21,-1,-1,-1,23,25,-1,27,29,-1,31,-1,-1,-1,-1,-1,33,35,37,-1,-1,39,-1,-1,-1,-1,-1,-1,-1,-1],"loss_changes":[1.5967461E-1,4.873202E-2,2.1364927E-2,5.754254E-2,1.8138394E-2,8.088559E-3,8.817209E-5,2.9028691E-2,4.3684203E-2,1.7602317E-2,0E0,2.3979813E-2,0E0,0E0,0E0,4.3457537E-4,5.165249E-3,0E0,1.2544571E-2,1.3807781E-2,0E0,6.6700876E-3,0E0,0E0,0E0,0E0,0E0,3.524197E-2,1.5281223E-2,9.263262E-3,0E0,0E0,4.39848E-3,0E0,0E0,0E0,0E0,0E0,0E0,0E0,0E0],"parents":[2147483647,0,0,1,1,2,2,3,3,4,4,5,5,6,6,7,7,8,8,9,9,11,11,15,15,16,16,18,18,19,19,21,21,27,27,28,28,29,29,32,32],"right_children":[2,4,6,8,10,12,14,16,18,20,-1,22,-1,-1,-1,24,26,-1,28,30,-1,32,-1,-1,-1,-1,-1,34,36,38,-1,-1,40,-1,-1,-1,-1,-1,-1,-1,-1],"split_conditions":[7.551024E-1,5.11485E-2,-4.2429483E-1,-9.3758166E-1,1.1974188E0,-4.5033365E-1,-2.7823776E-1,3.6956525E-1,-6.149145E-1,6.925062E-2,3.0672657E-3,-4.6355987E-1,3.8129747E-2,-4.105985E-3,-9.717363E-4,-1.0331907E0,5.4731274E-1,3.383792E-2,-6.7235804E-1,1.1937883E0,-1.9604862E-2,-6.37362E-1,-1.8793594E-2,-1.2550744E-2,-3.371198E-3,3.0939618E-2,1.4875304E-2,6.1945873E-1,7.0082086E-1,1.126966E0,3.500381E-2,1.51104415E-2,-6.132643E-1,-3.0466593E-3,1.6428513E-2,-3.43745E-3,-1.903723E-2,9.368665E-3,-8.336449E-3,3.7631895E-2,1.7562611E-2],"split_indices":[1,0,0,0,0,0,0,1,1,1,0,0,0,0,0,0,1,0,0,0,0,0,0,0,0,0,0,1,1,0,0,0,0,0,0,0,0,0,0,0,0],"split_type":[0,0,0,0,0,0,0,0,0,0,0,0,0,0,0,0,0,0,0,0,0,0,0,0,0,0,0,0,0,0,0,0,0,0,0,0,0,0,0,0,0],"sum_hessian":[4.99E2,3.77E2,1.22E2,1.91E2,1.86E2,1.17E2,5E0,1.7E1,1.74E2,1.02E2,8.4E1,1.16E2,1E0,3E0,2E0,3E0,1.4E1,2E0,1.72E2,1.01E2,1E0,1.15E2,1E0,1E0,2E0,4E0,1E1,4.4E1,1.28E2,1E2,1E0,1.04E2,1.1E1,3.4E1,1E1,1.23E2,5E0,9.8E1,2E0,2E0,9E0],"tree_param":{"num_deleted":"0","num_feature":"2","num_nodes":"41","size_leaf_vector":"0"}},{"base_weights":[1.4348628E-2,7.0618247E-3,3.662556E-2,-5.540125E-4,1.5531689E-2,3.8602937E-2,-8.367067E-3,3.8360287E-2,-4.378621E-3,1.3154506E-2,4.7517944E-2,3.7086137E-2,1.0803425E-1,-1.0607128E-2,-2.5912968E-3,-2.4522616E-2,5.257171E-2,6.227786E-2,-6.9900155E-3,1.903033E-2,7.1930494E-3,6.1937228E-2,-5.5547103E-2,3.832392E-2,-5.324851E-2,-3.556044E-2,-8.98986E-3,7.838039E-2,3.6061242E-2,9.0234436E-2,3.3048343E-2,-5.0435816E-3,-4.7477987E-2,1.6869793E-2,9.917748E-2,6.234631E-3,8.2046375E-2,3.631305E-2,8.555013E-2,-4.2106486E-3,-7.290461E-2,-1.2812392E-1,-1.765372E-2,1.8109685E-2,-2.2230545E-2,4.519542E-2,-5.532387E-2,3.57441E-2,1.0267892E-1,3.829803E-2,-9.300246E-2],"categories":[],"categories_nodes":[],"categories_segments":[],"categories_sizes":[],"default_left":[true,true,true,true,true,true,true,true,true,true,true,true,false,false,false,true,true,true,true,true,false,true,false,true,false,false,false,false,false,false,false,true,true,true,false,true,true,true,false,false,false,false,false,false,false,false,false,false,false,false,false],"id":12,"left_children":[1,3,5,7,9,11,13,15,17,19,21,23,-1,-1,-1,25,27,29,31,33,-1,35,-1,37,-1,-1,-1,-1,-1,-1,-1,39,41,43,-1,45,47,49,-1,-1,-1,-1,-1,-1,-1,-1,-1,-1,-1,-1,-1],"loss_changes":[8.090517E-2,2.4391536E-2,1.1265978E-2,2.9934362E-2,1.298558E-2,8.420408E-3,5.0142262E-5,1.7374994E-2,3.2289464E-2,5.7478957E-3,2.1273926E-2,1.51230395E-2,0E0,0E0,0E0,3.6610803E-4,3.5652071E-3,2.7380027E-3,1.3709408E-2,1.28724165E-2,0E0,1.1809919E-2,0E0,7.909462E-3,0E0,0E0,0E0,0E0,0E0,0E0,0E0,9.302049E-3,1.6979784E-2,4.426442E-3,0E0,1.2093857E-2,3.9725043E-3,3.2567665E-2,0E0,0E0,0E0,0E0,0E0,0E0,0E0,0E0,0E0,0E0,0E0,0E0,0E0],"parents":[2147483647,0,0,1,1,2,2,3,3,4,4,5,5,6,6,7,7,8,8,9,9,10,10,11,11,15,15,16,16,17,17,18,18,19,19,21,21,23,23,31,31,32,32,33,33,35,35,36,36,37,37],"right_children":[2,4,6,8,10,12,14,16,18,20,22,24,-1,-1,-1,26,28,30,32,34,-1,36,-1,38,-1,-1,-1,-1,-1,-1,-1,40,42,44,-1,46,48,50,-1,-1,-1,-1,-1,-1,-1,-1,-1,-1,-1,-1,-1],"split_conditions":[7.551024E-1,1.4236835E-1,-4.2429483E-1,-9.3758166E-1,-3.013938E-1,-4.5033365E-1,-2.7823776E-1,3.6956525E-1,-4.114275E-1,1.1974188E0,6.925062E-2,-4.6355987E-1,3.241028E-2,-3.1821385E-3,-7.773891E-4,-1.0331907E0,5.4731274E-1,3.900338E-2,1.2556227E-2,1.1937883E0,2.157915E-3,1.9621524E-1,-1.6664132E-2,-5.1981753E-1,-1.5974553E-2,-1.0668132E-2,-2.6969581E-3,2.3514118E-2,1.0818373E-2,2.7070332E-2,9.914503E-3,7.52215E-1,1.8046467E-2,1.126966E0,2.9753245E-2,1.8013081E-1,-1.4338577E-1,-5.5737615E-1,2.566504E-2,-1.2631946E-3,-2.1871384E-2,-3.843718E-2,-5.296116E-3,5.4329056E-3,-6.6691637E-3,1.3558626E-2,-1.6597161E-2,1.072323E-2,3.0803677E-2,1.1489409E-2,-2.7900739E-2],"split_indices":[1,0,0,0,1,0,0,1,1,0,1,0,0,0,0,0,1,0,0,0,0,0,0,0,0,0,0,0,0,0,0,1,0,0,0,0,1,0,0,0,0,0,0,0,0,0,0,0,0,0,0],"split_type":[0,0,0,0,0,0,0,0,0,0,0,0,0,0,0,0,0,0,0,0,0,0,0,0,0,0,0,0,0,0,0,0,0,0,0,0,0,0,0,0,0,0,0,0,0,0,0,0,0,0,0],"sum_hessian":[4.99E2,3.77E2,1.22E2,1.99E2,1.78E2,1.17E2,5E0,1.7E1,1.82E2,1.67E2,1.1E1,1.16E2,1E0,3E0,2E0,3E0,1.4E1,6E0,1.76E2,8.3E1,8.4E1,1E1,1E0,1.15E2,1E0,1E0,2E0,4E0,1E1,2E0,4E0,1.69E2,7E0,8.2E1,1E0,3E0,7E0,1.12E2,3E0,1.68E2,1E0,1E0,6E0,8E1,2E0,2E0,1E0,3E0,4E0,1.11E2,1E0],"tree_param":{"num_deleted":"0","num_feature":"2","num_nodes":"51","size_leaf_vector":"0"}},{"base_weights":[1.0174656E-2,4.0740776E-3,2.4114968E-2,-3.3728718E-3,1.1165442E-2,2.5681296E-2,-6.950244E-4,4.8878055E-2,-5.5691362E-3,9.39071E-3,3.5081245E-2,2.4568783E-2,9.182906E-2,-9.481166E-3,4.424917E-3,7.218758E-2,2.511673E-2,5.5846095E-2,-7.0511843E-3,5.8342535E-3,1.4664857E-2,5.9506208E-2,-1.1014946E-2,2.5385033E-2,-4.5261234E-2,1.2038557E-2,-4.294953E-3,-5.372141E-3,-3.870125E-2,1.2298214E-2,4.3027117E-3,1.2675894E-2,3.6792804E-2,3.654595E-2,8.5591316E-2,-6.282689E-2,4.446864E-2,2.4015104E-2,6.6301346E-2,-3.0226374E-2,-5.014475E-3,-1.0890533E-1,-1.3114191E-2,-1.7784437E-2,5.058306E-3,8.4300876E-2,3.8405657E-3,2.5604278E-2,-3.5623293E-2],"categories":[],"categories_nodes":[],"categories_segments":[],"categories_sizes":[],"default_left":[true,true,true,true,true,true,true,true,true,true,true,true,false,false,true,false,false,false,true,true,true,true,true,true,false,false,false,true,true,false,true,false,true,false,false,false,false,true,false,false,false,false,false,false,false,false,false,false,false],"id":13,"left_children":[1,3,5,7,9,11,13,15,17,19,21,23,-1,-1,25,-1,-1,-1,27,29,31,33,35,37,-1,-1,-1,39,41,-1,43,-1,45,-1,-1,-1,-1,47,-1,-1,-1,-1,-1,-1,-1,-1,-1,-1,-1],"loss_changes":[4.2423736E-2,1.8468011E-2,5.924657E-3,1.989563E-2,7.2680656E-3,8.267276E-3,4.917986E-4,2.0639412E-3,1.5412135E-2,3.0656625E-3,1.416623E-2,9.2427805E-3,0E0,0E0,5.1643467E-4,0E0,0E0,0E0,8.401067E-3,9.568664E-4,2.4823993E-3,1.6633496E-3,1.7167388E-2,6.3111633E-3,0E0,0E0,0E0,1.2263064E-3,1.2942322E-2,0E0,1.4918289E-3,0E0,7.5037237E-3,0E0,0E0,0E0,0E0,1.3991162E-2,0E0,0E0,0E0,0E0,0E0,0E0,0E0,0E0,0E0,0E0,0E0],"parents":[2147483647,0,0,1,1,2,2,3,3,4,4,5,5,6,6,7,7,8,8,9,9,10,10,11,11,14,14,18,18,19,19,20,20,21,21,22,22,23,23,27,27,28,28,30,30,32,32,37,37],"right_children":[2,4,6,8,10,12,14,16,18,20,22,24,-1,-1,26,-1,-1,-1,28,30,32,34,36,38,-1,-1,-1,40,42,-1,44,-1,46,-1,-1,-1,-1,48,-1,-1,-1,-1,-1,-1,-1,-1,-1,-1,-1],"split_conditions":[5.9081984E-1,1.4236835E-1,-4.2429483E-1,-4.114275E-1,-3.013938E-1,-4.5033365E-1,-3.5896316E-1,3.900338E-2,-1.078161E0,-1.0256444E0,-4.1808125E-2,-4.6355987E-1,2.754872E-2,-2.8443497E-3,7.506486E-1,2.1656275E-2,7.5350194E-3,1.675383E-2,1.2556227E-2,1.1223195E0,1.1580791E0,-1.4338577E-1,3.530039E-1,-5.1375365E-1,-1.3578371E-2,3.6115672E-3,-1.288486E-3,-1.0339193E0,1.8046467E-2,3.6894644E-3,1.196948E0,3.8027684E-3,1.2675958E0,1.0963785E-2,2.5677396E-2,-1.8848067E-2,1.3340593E-2,-5.3371084E-1,1.9890405E-2,-9.067913E-3,-1.5043425E-3,-3.26716E-2,-3.934257E-3,-5.3353314E-3,1.5174918E-3,2.5290264E-2,1.1521698E-3,7.6812836E-3,-1.0686988E-2],"split_indices":[1,0,0,1,1,0,0,0,0,1,1,0,0,0,1,0,0,0,0,0,0,1,0,0,0,0,0,0,0,0,0,0,0,0,0,0,0,0,0,0,0,0,0,0,0,0,0,0,0],"split_type":[0,0,0,0,0,0,0,0,0,0,0,0,0,0,0,0,0,0,0,0,0,0,0,0,0,0,0,0,0,0,0,0,0,0,0,0,0,0,0,0,0,0,0,0,0,0,0,0,0],"sum_hessian":[4.99E2,3.48E2,1.51E2,1.7E2,1.78E2,1.42E2,9E0,6E0,1.64E2,1.67E2,1.1E1,1.41E2,1E0,3E0,6E0,2E0,4E0,3E0,1.61E2,1.01E2,6.6E1,7E0,4E0,1.4E2,1E0,3E0,3E0,1.54E2,7E0,1.8E1,8.3E1,6.2E1,4E0,5E0,2E0,2E0,2E0,1.37E2,3E0,1E0,1.53E2,1E0,6E0,2E0,8.1E1,1E0,3E0,1.34E2,3E0],"tree_param":{"num_deleted":"0","num_feature":"2","num_nodes":"49","size_leaf_vector":"0"}},{"base_weights":[7.302943E-3,3.0238293E-3,1.7079968E-2,-2.3682208E-3,8.158001E-3,1.8192599E-2,-5.386439E-4,3.458868E-2,-4.394257E-3,6.752775E-3,2.7151335E-2,1.7221354E-2,7.805467E-2,-7.347903E-3,3.4293106E-3,5.7750065E-2,1.972113E-2,-9.256953E-2,-3.2785481E-3,4.0827417E-3,1.0716814E-2,3.6490727E-2,-3.7791003E-2,1.7889194E-2,-3.847205E-2,9.3298815E-3,-3.3285883E-3,4.328066E-2,-4.429229E-3,8.802982E-3,2.9664643E-3,8.93348E-3,3.1043459E-2,2.8347261E-3,4.875739E-2,1.678871E-2,5.1383615E-2,-4.8361067E-3,-1.2140466E-3,-3.3400818E-3,-4.5798674E-2,-1.422755E-2,3.5593372E-3,7.165575E-2,2.9764473E-3,2.8847137E-2,-3.7601255E-2,2.3788165E-2,6.777957E-2,1.7979808E-2,-2.760805E-2],"categories":[],"categories_nodes":[],"categories_segments":[],"categories_sizes":[],"default_left":[true,true,true,true,true,true,true,true,true,true,true,true,false,false,true,false,false,false,true,true,true,true,false,true,false,false,true,false,true,false,true,false,true,true,true,true,false,false,false,false,false,false,false,false,false,false,false,false,false,false,false],"id":14,"left_children":[1,3,5,7,9,11,13,15,17,19,21,23,-1,-1,25,-1,-1,-1,27,29,31,33,-1,35,-1,-1,37,-1,39,-1,41,-1,43,45,47,49,-1,-1,-1,-1,-1,-1,-1,-1,-1,-1,-1,-1,-1,-1,-1],"loss_changes":[2.0866858E-2,9.680935E-3,2.989456E-3,1.2955789E-2,4.59415E-3,6.9699176E-3,2.953866E-4,1.9602813E-3,1.5732106E-2,1.7343774E-3,8.657287E-3,5.9698224E-3,0E0,0E0,3.101836E-4,0E0,0E0,0E0,8.870818E-3,5.113343E-4,2.1513696E-3,4.4031003E-3,0E0,4.33461E-3,0E0,0E0,6.8795816E-6,0E0,7.0111603E-3,0E0,9.069252E-4,0E0,5.4860488E-3,5.2920384E-3,2.187401E-3,7.7939555E-3,0E0,0E0,0E0,0E0,0E0,0E0,0E0,0E0,0E0,0E0,0E0,0E0,0E0,0E0,0E0],"parents":[2147483647,0,0,1,1,2,2,3,3,4,4,5,5,6,6,7,7,8,8,9,9,10,10,11,11,14,14,18,18,19,19,20,20,21,21,23,23,26,26,28,28,30,30,32,32,33,33,34,34,35,35],"right_children":[2,4,6,8,10,12,14,16,18,20,22,24,-1,-1,26,-1,-1,-1,28,30,32,34,-1,36,-1,-1,38,-1,40,-1,42,-1,44,46,48,50,-1,-1,-1,-1,-1,-1,-1,-1,-1,-1,-1,-1,-1,-1,-1],"split_conditions":[5.9081984E-1,1.4236835E-1,-4.2429483E-1,-3.128423E-1,-3.013938E-1,-4.5033365E-1,-3.5896316E-1,-7.7981126E-1,-3.0051225E-1,-1.0256444E0,6.925062E-2,-4.6355987E-1,2.34164E-2,-2.2043712E-3,7.506486E-1,1.732502E-2,5.9163393E-3,-2.777086E-2,-1.078161E0,1.1223195E0,1.1580791E0,1.9621524E-1,-1.1337301E-2,-5.1375365E-1,-1.1541615E-2,2.7989645E-3,-2.7823776E-1,1.29841985E-2,7.670827E-2,2.6408946E-3,1.196948E0,2.6800442E-3,1.2675958E0,1.8013081E-1,-1.0409001E-1,-5.3371084E-1,1.5415085E-2,-1.450832E-3,-3.64214E-4,-1.0020246E-3,-1.3739603E-2,-4.268265E-3,1.0678013E-3,2.1496726E-2,8.929342E-4,8.654142E-3,-1.1280376E-2,7.1364497E-3,2.0333871E-2,5.393943E-3,-8.282416E-3],"split_indices":[1,0,0,1,1,0,0,1,1,1,1,0,0,0,1,0,0,0,0,0,0,0,0,0,0,0,0,0,0,0,0,0,0,0,1,0,0,0,0,0,0,0,0,0,0,0,0,0,0,0,0],"split_type":[0,0,0,0,0,0,0,0,0,0,0,0,0,0,0,0,0,0,0,0,0,0,0,0,0,0,0,0,0,0,0,0,0,0,0,0,0,0,0,0,0,0,0,0,0,0,0,0,0,0,0],"sum_hessian":[4.99E2,3.48E2,1.51E2,1.7E2,1.78E2,1.42E2,9E0,8E0,1.62E2,1.67E2,1.1E1,1.41E2,1E0,3E0,6E0,2E0,6E0,1E0,1.61E2,1.01E2,6.6E1,1E1,1E0,1.4E2,1E0,3E0,3E0,3E0,1.58E2,1.8E1,8.3E1,6.2E1,4E0,3E0,7E0,1.37E2,3E0,1E0,2E0,1.55E2,3E0,2E0,8.1E1,1E0,3E0,2E0,1E0,4E0,3E0,1.34E2,3E0],"tree_param":{"num_deleted":"0","num_feature":"2","num_nodes":"51","size_leaf_vector":"0"}},{"base_weights":[5.221867E-3,2.6025274E-3,1.3229092E-2,2.9728604E-3,-6.8506524E-2,4.4769883E-2,1.1513212E-2,1.857745E-2,2.3198528E-3,1.0530042E-2,1.0798454E-1,-3.2417476E-2,1.2941121E-2,-1.9554758E-2,2.5948158E-2,-1.5195177E-3,5.8625513E-3,3.1549535E-3,-6.956738E-2,1.0988581E-2,2.4335673E-2,-2.5191406E-2,-4.140733E-3,4.2227555E-2,1.402092E-2,-6.238356E-4,-7.86841E-2,6.235462E-3,-3.212235E-2,5.4608583E-3,-7.28428E-4,6.683239E-3,4.6076912E-2,4.6200037E-2,-1.4369041E-3,5.4355967E-3,2.6141183E-2,3.0747414E-2,-1.4484113E-2,1.0185559E-2,5.839634E-2],"categories":[],"categories_nodes":[],"categories_segments":[],"categories_sizes":[],"default_left":[true,true,true,true,false,true,true,true,true,false,false,true,true,true,true,true,true,true,false,false,true,false,false,false,false,true,false,true,false,false,false,true,true,false,false,false,false,false,false,false,false],"id":15,"left_children":[1,3,5,7,-1,9,11,13,15,-1,-1,17,19,21,23,25,27,29,-1,-1,31,-1,-1,-1,-1,33,-1,35,-1,-1,-1,37,39,-1,-1,-1,-1,-1,-1,-1,-1],"loss_changes":[1.04523925E-2,1.0157926E-2,6.1413404E-3,3.7985013E-3,0E0,1.1849677E-2,7.821545E-3,4.72333E-3,4.946337E-3,0E0,0E0,5.505531E-3,2.291141E-3,1.5633937E-4,1.9321172E-3,1.2046027E-2,2.87748E-3,3.0841966E-5,0E0,0E0,5.8326283E-3,0E0,0E0,0E0,0E0,6.690742E-3,0E0,2.8512245E-3,0E0,0E0,0E0,5.539098E-3,2.5003282E-3,0E0,0E0,0E0,0E0,0E0,0E0,0E0,0E0],"parents":[2147483647,0,0,1,1,2,2,3,3,5,5,6,6,7,7,8,8,11,11,12,12,13,13,14,14,15,15,16,16,17,17,20,20,25,25,27,27,31,31,32,32],"right_children":[2,4,6,8,-1,10,12,14,16,-1,-1,18,20,22,24,26,28,30,-1,-1,32,-1,-1,-1,-1,34,-1,36,-1,-1,-1,38,40,-1,-1,-1,-1,-1,-1,-1,-1],"split_conditions":[7.551024E-1,7.52215E-1,7.8067493E-1,-9.5463765E-1,-2.0551957E-2,-6.937045E-1,7.959341E-1,3.6956525E-1,1.8046467E-2,3.1590129E-3,3.2395363E-2,7.9263765E-1,-6.2802273E-1,-1.0331907E0,5.4731274E-1,1.2556227E-2,1.1031372E-1,-4.6195662E-1,-2.0870216E-2,3.2965743E-3,9.677442E-1,-7.557422E-3,-1.2422199E-3,1.2668267E-2,4.206276E-3,-6.149145E-1,-2.3605231E-2,-9.6134774E-2,-9.636706E-3,1.6382575E-3,-2.1852841E-4,-5.1781106E-1,-5.515198E-1,1.38600115E-2,-4.3107124E-4,1.6306791E-3,7.842355E-3,9.224225E-3,-4.345234E-3,3.055668E-3,1.7518902E-2],"split_indices":[1,1,1,0,0,0,1,1,0,0,0,1,0,0,1,0,1,0,0,0,1,0,0,0,0,1,0,1,0,0,0,0,0,0,0,0,0,0,0,0,0],"split_type":[0,0,0,0,0,0,0,0,0,0,0,0,0,0,0,0,0,0,0,0,0,0,0,0,0,0,0,0,0,0,0,0,0,0,0,0,0,0,0,0,0],"sum_hessian":[4.99E2,3.77E2,1.22E2,3.76E2,1E0,5E0,1.17E2,1.4E1,3.62E2,4E0,1E0,3E0,1.14E2,2E0,1.2E1,1.74E2,1.88E2,2E0,1E0,9.9E1,1.5E1,1E0,1E0,4E0,8E0,1.73E2,1E0,1.87E2,1E0,1E0,1E0,9E0,6E0,2E0,1.71E2,1.81E2,6E0,4E0,5E0,2E0,4E0],"tree_param":{"num_deleted":"0","num_feature":"2","num_nodes":"41","size_leaf_vector":"0"}},{"base_weights":[3.6993795E-3,1.3094133E-3,9.162529E-3,4.1635684E-3,-2.1273983E-3,1.8058375E-2,7.677868E-3,1.0698184E-3,7.088558E-3,-3.2629638E-3,2.7373353E-2,2.0984516E-2,3.7614512E-4,-9.964629E-2,9.257795E-3,4.814003E-3,4.0946773E-4,-9.6402474E-4,8.33147E-3,-1.8924269E-3,-4.3726485E-2,4.376962E-2,-2.7303997E-2,1.0797341E-2,2.8054522E-2,-5.2617365E-3,4.009351E-3,1.8034574E-2,8.138026E-3,-1.2469132E-2,8.9334534E-4,9.251279E-3,-6.6881485E-2,2.6154041E-2,6.140112E-3,1.9606482E-2,-2.7689857E-3,6.810868E-2,2.0657688E-2,5.300794E-3,9.178686E-2,-2.7554834E-2,9.308752E-3,2.8502755E-2,-2.4719061E-3,1.4971991E-2,3.6388606E-2,4.936503E-3,1.590418E-2,-2.1412695E-2,3.2092858E-2,-2.9553287E-3,7.0363614E-3,1.8169673E-2,-1.2741177E-2,2.6817382E-3,-5.9132274E-2,7.724934E-3,1.8625818E-2],"categories":[],"categories_nodes":[],"categories_segments":[],"categories_sizes":[],"default_left":[true,true,true,true,true,true,true,true,true,true,true,true,true,false,true,false,true,true,true,true,false,true,false,false,false,false,false,true,true,false,false,true,false,true,true,true,true,false,false,true,false,true,true,false,false,false,false,false,false,false,false,false,false,false,false,false,false,false,false],"id":16,"left_children":[1,3,5,7,9,11,13,15,17,19,21,23,25,-1,27,-1,29,31,33,35,-1,37,-1,-1,-1,-1,-1,39,41,-1,-1,43,-1,45,47,49,51,-1,-1,53,-1,55,57,-1,-1,-1,-1,-1,-1,-1,-1,-1,-1,-1,-1,-1,-1,-1,-1],"loss_changes":[6.5163733E-3,3.432266E-3,1.8688627E-3,1.720811E-3,5.4158242E-3,1.0786615E-3,2.3304999E-2,2.304415E-4,9.888806E-4,8.457591E-3,6.574113E-3,9.93506E-4,1.0303049E-4,0E0,1.1406969E-3,0E0,5.159042E-4,1.0045876E-2,3.1591407E-3,2.881049E-3,0E0,1.4056461E-3,0E0,0E0,0E0,0E0,0E0,1.2661492E-2,5.187312E-3,0E0,0E0,3.0044082E-3,0E0,4.8518088E-4,8.2640257E-4,3.7602796E-3,2.8573268E-4,0E0,0E0,3.2498422E-3,0E0,3.9777514E-3,1.5531192E-3,0E0,0E0,0E0,0E0,0E0,0E0,0E0,0E0,0E0,0E0,0E0,0E0,0E0,0E0,0E0,0E0],"parents":[2147483647,0,0,1,1,2,2,3,3,4,4,5,5,6,6,7,7,8,8,9,9,10,10,11,11,12,12,14,14,16,16,17,17,18,18,19,19,21,21,27,27,28,28,31,31,33,33,34,34,35,35,36,36,39,39,41,41,42,42],"right_children":[2,4,6,8,10,12,14,16,18,20,22,24,26,-1,28,-1,30,32,34,36,-1,38,-1,-1,-1,-1,-1,40,42,-1,-1,44,-1,46,48,50,52,-1,-1,54,-1,56,58,-1,-1,-1,-1,-1,-1,-1,-1,-1,-1,-1,-1,-1,-1,-1,-1],"split_conditions":[5.9081984E-1,-1.6243143E-1,7.104453E-1,-1.0893435E0,1.9621524E-1,-4.4015744E-1,7.1756625E-1,1.1223195E0,3.9595857E-2,6.522865E-2,6.925062E-2,-9.029082E-1,-3.5896316E-1,-2.9893888E-2,7.8067493E-1,1.444201E-3,1.196948E0,3.228737E-3,1.9369918E-1,-1.024586E0,-1.3117946E-2,2.6197913E-1,-8.1912E-3,3.2392025E-3,8.416357E-3,-1.578521E-3,1.2028054E-3,7.717283E-1,7.959341E-1,-3.7407398E-3,2.680036E-4,-3.0533388E-1,-2.0064447E-2,-3.9518273E-1,1.1580791E0,3.6956525E-1,1.4039099E-2,2.0432604E-2,6.197307E-3,7.52215E-1,2.7536059E-2,7.9263765E-1,-6.2802273E-1,8.550826E-3,-7.415719E-4,4.4915974E-3,1.0916582E-2,1.4809509E-3,4.7712545E-3,-6.4238086E-3,9.627858E-3,-8.8659866E-4,2.1109085E-3,5.450902E-3,-3.8223534E-3,8.045215E-4,-1.7739683E-2,2.3174803E-3,5.5877455E-3],"split_indices":[1,1,1,1,0,0,1,0,0,0,1,0,0,0,1,0,0,0,0,0,0,0,0,0,0,0,0,1,1,0,0,1,0,1,0,1,0,0,0,1,0,1,0,0,0,0,0,0,0,0,0,0,0,0,0,0,0,0,0],"split_type":[0,0,0,0,0,0,0,0,0,0,0,0,0,0,0,0,0,0,0,0,0,0,0,0,0,0,0,0,0,0,0,0,0,0,0,0,0,0,0,0,0,0,0,0,0,0,0,0,0,0,0,0,0,0,0,0,0,0,0],"sum_hessian":[4.99E2,3.48E2,1.51E2,1.9E2,1.58E2,2E1,1.31E2,9.3E1,9.7E1,1.53E2,5E0,1.7E1,3E0,1E0,1.3E2,1.3E1,8E1,1.3E1,8.4E1,1.49E2,4E0,4E0,1E0,8E0,9E0,1E0,2E0,1.3E1,1.17E2,2E0,7.8E1,1.2E1,1E0,8E0,7.6E1,5E0,1.44E2,1E0,3E0,1.2E1,1E0,3E0,1.14E2,4E0,8E0,5E0,3E0,6.9E1,7E0,1E0,4E0,1.42E2,2E0,7E0,5E0,2E0,1E0,9.9E1,1.5E1],"tree_param":{"num_deleted":"0","num_feature":"2","num_nodes":"59","size_leaf_vector":"0"}},{"base_weights":[2.6268712E-3,1.1611619E-3,7.1098898E-3,1.4630185E-3,-5.6319367E-2,3.5223484E-2,5.6201317E-3,1.2305838E-3,1.851004E-2,1.1060667E-2,7.8018785E-2,-2.352215E-2,6.5849056E-3,1.663295E-3,-3.0949615E-2,5.376816E-3,2.0449141E-2,2.145423E-3,-5.0262433E-2,5.4306793E-3,1.3387263E-2,1.0749423E-3,1.6505456E-2,-8.469935E-2,3.6626544E-3,4.239559E-3,-1.0214245E-3,1.3718607E-4,3.0403478E-2,-1.1143145E-3,3.0152607E-3,1.8454496E-2,3.2074808E-3,6.3790847E-4,6.368446E-3,1.889782E-2,-1.551954E-2,4.4233003E-3,3.991089E-2],"categories":[],"categories_nodes":[],"categories_segments":[],"categories_sizes":[],"default_left":[true,true,true,true,false,true,true,true,true,false,false,true,true,true,true,false,false,true,false,false,true,true,true,false,true,false,false,true,true,false,false,false,false,false,false,false,false,false,false],"id":17,"left_children":[1,3,5,7,-1,9,11,13,15,-1,-1,17,19,21,23,-1,-1,25,-1,-1,27,29,31,-1,33,-1,-1,35,37,-1,-1,-1,-1,-1,-1,-1,-1,-1,-1],"loss_changes":[3.2771453E-3,6.641025E-3,4.953581E-3,1.4710159E-3,0E0,5.34139E-3,3.4725447E-3,5.245403E-3,1.7382088E-5,0E0,0E0,2.8532671E-3,8.3021587E-4,3.2045222E-3,9.612226E-3,0E0,0E0,2.4225821E-5,0E0,0E0,3.6032873E-3,1.5155965E-3,3.0366378E-4,0E0,2.8674847E-5,0E0,0E0,3.2305864E-3,1.5524914E-3,0E0,0E0,0E0,0E0,0E0,0E0,0E0,0E0,0E0,0E0],"parents":[2147483647,0,0,1,1,2,2,3,3,5,5,6,6,7,7,8,8,11,11,12,12,13,13,14,14,17,17,20,20,21,21,22,22,24,24,27,27,28,28],"right_children":[2,4,6,8,-1,10,12,14,16,-1,-1,18,20,22,24,-1,-1,26,-1,-1,28,30,32,-1,34,-1,-1,36,38,-1,-1,-1,-1,-1,-1,-1,-1,-1,-1],"split_conditions":[7.551024E-1,7.52215E-1,7.8067493E-1,7.2721237E-1,-1.689581E-2,-6.937045E-1,7.959341E-1,7.104453E-1,-8.759667E-1,3.3182004E-3,2.3405636E-2,7.9263765E-1,-6.2802273E-1,6.6384745E-1,7.1756625E-1,1.6130448E-3,6.1347424E-3,-4.6195662E-1,-1.507873E-2,1.6292039E-3,9.677442E-1,1.8046467E-2,-4.3683362E-1,-2.5409805E-2,-4.1852725E-1,1.2718678E-3,-3.0642736E-4,-5.1781106E-1,-5.515198E-1,-3.3429437E-4,9.0457825E-4,5.536349E-3,9.622443E-4,1.9137254E-4,1.9105339E-3,5.669346E-3,-4.655862E-3,1.3269901E-3,1.1973267E-2],"split_indices":[1,1,1,1,0,0,1,1,0,0,0,1,0,1,1,0,0,0,0,0,1,0,0,0,0,0,0,0,0,0,0,0,0,0,0,0,0,0,0],"split_type":[0,0,0,0,0,0,0,0,0,0,0,0,0,0,0,0,0,0,0,0,0,0,0,0,0,0,0,0,0,0,0,0,0,0,0,0,0,0,0],"sum_hessian":[4.99E2,3.77E2,1.22E2,3.76E2,1E0,5E0,1.17E2,3.72E2,4E0,4E0,1E0,3E0,1.14E2,3.68E2,4E0,1E0,3E0,2E0,1E0,9.9E1,1.5E1,3.55E2,1.3E1,1E0,3E0,1E0,1E0,9E0,6E0,1.67E2,1.88E2,1.1E1,2E0,2E0,1E0,4E0,5E0,2E0,4E0],"tree_param":{"num_deleted":"0","num_feature":"2","num_nodes":"39","size_leaf_vector":"0"}},{"base_weights":[1.8451646E-3,7.4565987E-4,5.209129E-3,1.0015977E-3,-4.7871463E-2,2.9110352E-2,3.9496673E-3,8.446451E-3,6.265729E-4,8.406019E-3,6.631601E-2,-1.9993851E-2,4.74814E-3,-1.2128785E-2,1.3370085E-2,2.0301E-3,-1.2428025E-3,1.8235778E-3,-4.2723067E-2,4.14793E-3,1.4960638E-2,-1.8033644E-2,-4.1492847E-3,2.4658013E-2,7.023746E-3,1.4796117E-3,5.7440102E-2,-1.6843862E-3,1.5848082E-2,3.6035776E-3,-8.6821086E-4,4.754692E-3,-3.0994568E-2,4.880631E-2,-1.5697583E-3,1.3959408E-3,7.4469326E-3,2.0517479E-3,-8.797312E-3,-7.951016E-4,-3.4389142E-2,4.0825596E-3,1.7918538E-2,-2.4513216E-3,9.782474E-4],"categories":[],"categories_nodes":[],"categories_segments":[],"categories_sizes":[],"default_left":[true,true,true,true,false,true,true,true,true,false,false,true,true,true,true,true,true,true,false,true,true,false,false,false,true,true,false,true,false,false,false,true,false,false,true,false,false,false,false,false,false,false,false,false,false],"id":18,"left_children":[1,3,5,7,-1,9,11,13,15,-1,-1,17,19,21,23,25,27,29,-1,31,33,-1,-1,-1,35,37,-1,39,-1,-1,-1,41,-1,-1,43,-1,-1,-1,-1,-1,-1,-1,-1,-1,-1],"loss_changes":[1.845463E-3,4.751389E-3,3.5876525E-3,1.0472938E-3,0E0,4.0644556E-3,2.3508877E-3,1.9856514E-3,9.470619E-4,0E0,0E0,2.0614811E-3,6.4285356E-4,1.1364458E-4,9.013633E-4,6.198538E-3,1.1964882E-3,1.7502814E-5,0E0,2.4929147E-3,3.4335086E-3,0E0,0E0,0E0,1.5802216E-5,1.223409E-3,0E0,4.3934006E-3,0E0,0E0,0E0,8.912622E-4,0E0,0E0,1.3629139E-5,0E0,0E0,0E0,0E0,0E0,0E0,0E0,0E0,0E0,0E0],"parents":[2147483647,0,0,1,1,2,2,3,3,5,5,6,6,7,7,8,8,11,11,12,12,13,13,14,14,15,15,16,16,17,17,19,19,20,20,24,24,25,25,27,27,31,31,34,34],"right_children":[2,4,6,8,-1,10,12,14,16,-1,-1,18,20,22,24,26,28,30,-1,32,34,-1,-1,-1,36,38,-1,40,-1,-1,-1,42,-1,-1,44,-1,-1,-1,-1,-1,-1,-1,-1,-1,-1],"split_conditions":[7.551024E-1,7.52215E-1,7.8067493E-1,-9.3758166E-1,-1.4361439E-2,-6.937045E-1,7.959341E-1,3.6956525E-1,-8.1030786E-2,2.5218057E-3,1.9894803E-2,7.9263765E-1,-4.5033365E-1,-1.0331907E0,5.4731274E-1,-8.771781E-2,7.269639E-1,-4.6195662E-1,-1.2816921E-2,-4.6355987E-1,-4.2429483E-1,-5.4100933E-3,-1.2447855E-3,7.3974044E-3,-1.0410728E0,-1.4611483E-1,1.723203E-2,7.104453E-1,4.7544246E-3,1.0810733E-3,-2.6046328E-4,-5.890784E-1,-9.298371E-3,1.4641893E-2,-2.7823776E-1,4.1878226E-4,2.2340799E-3,6.1552436E-4,-2.6391938E-3,-2.3853048E-4,-1.0316743E-2,1.2247679E-3,5.375562E-3,-7.353965E-4,2.9347424E-4],"split_indices":[1,1,1,0,0,0,1,1,1,0,0,1,0,0,1,1,1,0,0,0,0,0,0,0,0,1,0,1,0,0,0,0,0,0,0,0,0,0,0,0,0,0,0,0,0],"split_type":[0,0,0,0,0,0,0,0,0,0,0,0,0,0,0,0,0,0,0,0,0,0,0,0,0,0,0,0,0,0,0,0,0,0,0,0,0,0,0,0,0,0,0,0,0],"sum_hessian":[4.99E2,3.77E2,1.22E2,3.76E2,1E0,5E0,1.17E2,1.7E1,3.59E2,4E0,1E0,3E0,1.14E2,3E0,1.4E1,2.05E2,1.54E2,2E0,1E0,1.09E2,5E0,1E0,2E0,4E0,1E1,2.04E2,1E0,1.51E2,3E0,1E0,1E0,1.08E2,1E0,1E0,4E0,1E0,9E0,1.94E2,1E1,1.48E2,3E0,1.04E2,4E0,3E0,1E0],"tree_param":{"num_deleted":"0","num_feature":"2","num_nodes":"45","size_leaf_vector":"0"}},{"base_weights":[1.3323606E-3,3.4657327E-4,3.5870145E-3,1.4949372E-3,-1.2986319E-3,9.669448E-3,2.5921802E-3,1.0258972E-3,4.8824072E-2,1.0507203E-2,-1.7988936E-3,1.1291974E-2,-4.927814E-5,-6.6836074E-2,3.6323657E-3,2.5611457E-3,-1.1716436E-3,-1.5328597E-2,1.8740082E-2,-1.335529E-3,-1.3949958E-2,4.38416E-3,1.5289295E-2,-4.1860635E-3,2.725005E-3,1.0720776E-2,2.7605852E-3,1.6333819E-3,5.6946397E-2,-8.720416E-4,-4.3854886E-3,-1.4725684E-3,5.185057E-3,-3.5465147E-2,1.2215217E-2,5.3570666E-3,9.769598E-4,1.6077733E-2,3.7024615E-3,2.8733606E-3,5.636859E-2,-1.6994752E-2,3.4237222E-3,2.6136078E-3,-5.4024393E-3,-3.2803803E-3,-1.4056159E-3,1.0849011E-2,-8.239734E-3,1.550069E-3,-3.6314607E-2,2.879032E-3,1.283909E-2],"categories":[],"categories_nodes":[],"categories_segments":[],"categories_sizes":[],"default_left":[true,true,true,true,true,true,true,true,false,true,true,true,true,false,true,true,true,false,false,true,true,true,true,false,false,true,true,true,false,false,false,true,false,false,false,false,false,false,false,true,false,true,true,false,false,false,false,false,false,false,false,false,false],"id":19,"left_children":[1,3,5,7,9,11,13,15,-1,17,19,21,23,-1,25,27,29,-1,-1,31,33,35,37,-1,-1,39,41,43,-1,-1,-1,45,-1,-1,-1,-1,-1,-1,-1,47,-1,49,51,-1,-1,-1,-1,-1,-1,-1,-1,-1,-1],"loss_changes":[1.1100615E-3,6.6130504E-4,8.9468923E-4,4.522959E-3,8.693662E-4,3.317031E-4,9.7755855E-3,6.9462386E-4,0E0,1.5634773E-3,7.639912E-4,4.2999885E-4,5.7313497E-5,0E0,7.799241E-4,6.0122414E-3,7.8019984E-5,0E0,0E0,1.2826816E-4,3.2479577E-3,2.1285465E-5,4.0963292E-5,0E0,0E0,4.853076E-3,1.6040439E-3,8.417232E-4,0E0,0E0,0E0,1.148702E-5,0E0,0E0,0E0,0E0,1.0779149E-7,0E0,0E0,1.241637E-3,0E0,1.4894232E-3,5.5280875E-4,0E0,0E0,0E0,0E0,0E0,0E0,0E0,0E0,0E0,0E0],"parents":[2147483647,0,0,1,1,2,2,3,3,4,4,5,5,6,6,7,7,9,9,10,10,11,11,12,12,14,14,15,15,16,16,19,19,20,20,21,21,22,22,25,25,26,26,27,27,31,31,39,39,41,41,42,42],"right_children":[2,4,6,8,10,12,14,16,-1,18,20,22,24,-1,26,28,30,-1,-1,32,34,36,38,-1,-1,40,42,44,-1,-1,-1,46,-1,-1,-1,-1,-1,-1,-1,48,-1,50,52,-1,-1,-1,-1,-1,-1,-1,-1,-1,-1],"split_conditions":[5.9081984E-1,-8.1030786E-2,7.104453E-1,-8.771781E-2,-1.024586E0,-4.4015744E-1,7.1756625E-1,1.1974188E0,1.4647222E-2,3.6956525E-1,1.11424E-1,-9.510814E-1,-3.5896316E-1,-2.0050824E-2,7.8067493E-1,1.1937883E0,-1.0847313E0,-4.5985794E-3,5.6220246E-3,-4.6260376E-4,3.530039E-1,6.657721E-1,-6.26266E-1,-1.2558191E-3,8.175015E-4,7.717283E-1,7.959341E-1,-1.6243143E-1,1.708392E-2,-2.616125E-4,-1.3156466E-3,-9.2356706E-1,1.5555172E-3,-1.0639545E-2,3.664565E-3,1.60712E-3,2.9308797E-4,4.82332E-3,1.1107385E-3,7.52215E-1,1.6910577E-2,7.9263765E-1,-4.5033365E-1,7.840824E-4,-1.6207319E-3,-9.841141E-4,-4.216848E-4,3.2547035E-3,-2.4719203E-3,4.650207E-4,-1.0894382E-2,8.637096E-4,3.8517271E-3],"split_indices":[1,1,1,1,0,0,1,0,0,1,0,0,0,0,1,0,1,0,0,0,0,1,0,0,0,1,1,1,0,0,0,0,0,0,0,0,0,0,0,1,0,1,0,0,0,0,0,0,0,0,0,0,0],"split_type":[0,0,0,0,0,0,0,0,0,0,0,0,0,0,0,0,0,0,0,0,0,0,0,0,0,0,0,0,0,0,0,0,0,0,0,0,0,0,0,0,0,0,0,0,0,0,0,0,0,0,0,0,0],"sum_hessian":[4.99E2,3.48E2,1.51E2,2.05E2,1.43E2,2E1,1.31E2,2.04E2,1E0,5E0,1.38E2,1.7E1,3E0,1E0,1.3E2,1.2E2,8.4E1,1E0,4E0,1.34E2,4E0,7E0,1E1,1E0,2E0,1.3E1,1.17E2,1.19E2,1E0,7.8E1,6E0,1.32E2,2E0,2E0,2E0,5E0,2E0,9E0,1E0,1.2E1,1E0,3E0,1.14E2,1.05E2,1.4E1,3E0,1.29E2,7E0,5E0,2E0,1E0,1.09E2,5E0],"tree_param":{"num_deleted":"0","num_feature":"2","num_nodes":"53","size_leaf_vector":"0"}},{"base_weights":[9.783336E-4,3.4181896E-4,2.926498E-3,5.520348E-4,-3.945478E-2,2.29429E-2,1.883914E-3,3.894804E-4,8.001171E-3,8.366155E-3,4.7913313E-2,-1.4503641E-2,2.437534E-3,6.984528E-4,-5.6810662E-2,1.3627211E-3,9.986868E-3,1.24009E-3,-3.0867416E-2,2.0230948E-3,9.629331E-3,3.5662757E-4,8.741752E-3,2.18153E-4,1.8259287E-3,2.8306246E-3,-9.704896E-4,2.5329809E-3,-2.6777238E-2,3.9559484E-2,-4.268597E-3,1.1888103E-3,-7.886142E-4,1.7915368E-3,1.0330012E-2,1.750195E-3,1.0107541E-2,-4.788569E-3,-1.0943533E-3],"categories":[],"categories_nodes":[],"categories_segments":[],"categories_sizes":[],"default_left":[true,true,true,true,false,true,true,true,true,false,false,true,true,true,false,true,false,true,false,true,true,true,true,false,false,false,false,true,false,false,true,false,false,false,false,false,false,false,false],"id":20,"left_children":[1,3,5,7,-1,9,11,13,15,-1,-1,17,19,21,-1,23,-1,25,-1,27,29,31,33,-1,-1,-1,-1,35,-1,-1,37,-1,-1,-1,-1,-1,-1,-1,-1],"loss_changes":[6.190174E-4,3.1840818E-3,2.5236376E-3,4.533892E-4,0E0,1.7830734E-3,1.1059055E-3,6.578787E-3,9.1846276E-5,0E0,0E0,1.0687859E-3,3.2328366E-4,1.011412E-3,0E0,1.1921861E-6,0E0,1.3295101E-5,0E0,1.6831637E-3,2.6646662E-3,3.3927042E-4,1.4707458E-4,0E0,0E0,0E0,0E0,6.2859897E-4,0E0,0E0,3.01221E-6,0E0,0E0,0E0,0E0,0E0,0E0,0E0,0E0],"parents":[2147483647,0,0,1,1,2,2,3,3,5,5,6,6,7,7,8,8,11,11,12,12,13,13,15,15,17,17,19,19,20,20,21,21,22,22,27,27,30,30],"right_children":[2,4,6,8,-1,10,12,14,16,-1,-1,18,20,22,-1,24,-1,26,-1,28,30,32,34,-1,-1,-1,-1,36,-1,-1,38,-1,-1,-1,-1,-1,-1,-1,-1],"split_conditions":[7.551024E-1,7.52215E-1,7.8067493E-1,7.1756625E-1,-1.1836435E-2,-6.937045E-1,7.959341E-1,7.104453E-1,-8.759667E-1,2.5098468E-3,1.4373994E-2,7.9263765E-1,-4.5033365E-1,6.4953756E-1,-1.70432E-2,-9.649882E-1,2.9960605E-3,-4.6195662E-1,-9.260225E-3,-4.6355987E-1,-4.2429483E-1,-8.1030786E-2,-9.161446E-1,6.54459E-5,5.477786E-4,8.4918743E-4,-2.911469E-4,-6.2802273E-1,-8.033171E-3,1.1867845E-2,-2.7823776E-1,3.566431E-4,-2.3658427E-4,5.374611E-4,3.0990038E-3,5.2505854E-4,3.0322627E-3,-1.4365708E-3,-3.28306E-4],"split_indices":[1,1,1,1,0,0,1,1,0,0,0,1,0,1,0,0,0,0,0,0,0,1,0,0,0,0,0,0,0,0,0,0,0,0,0,0,0,0,0],"split_type":[0,0,0,0,0,0,0,0,0,0,0,0,0,0,0,0,0,0,0,0,0,0,0,0,0,0,0,0,0,0,0,0,0,0,0,0,0,0,0],"sum_hessian":[4.99E2,3.77E2,1.22E2,3.76E2,1E0,5E0,1.17E2,3.69E2,7E0,4E0,1E0,3E0,1.14E2,3.68E2,1E0,2E0,5E0,2E0,1E0,1.09E2,5E0,3.54E2,1.4E1,1E0,1E0,1E0,1E0,1.08E2,1E0,1E0,4E0,2.05E2,1.49E2,3E0,1.1E1,9.9E1,9E0,3E0,1E0],"tree_param":{"num_deleted":"0","num_feature":"2","num_nodes":"39","size_leaf_vector":"0"}},{"base_weights":[6.6942576E-4,1.8234403E-4,2.1608686E-3,3.607405E-4,-3.3536565E-2,1.887401E-2,1.2927353E-3,2.481594E-3,-1.6983468E-5,6.3582896E-3,4.0726304E-2,-1.2328109E-2,1.7552627E-3,-1.2127887E-3,6.351233E-3,-8.233855E-3,2.7370005E-4,1.0540567E-3,-2.6237303E-2,1.3755361E-3,8.424373E-3,6.652355E-3,-2.012169E-3,2.1111608E-2,5.0226413E-3,6.005716E-4,-4.828906E-2,8.2100293E-4,-1.1911406E-3,2.406001E-3,-8.249161E-4,1.8057823E-3,-2.2760652E-2,3.3625603E-2,-3.3409933E-3,-1.2911015E-2,-1.1303221E-3,4.625637E-4,6.59554E-3,-4.2574143E-4,4.9186945E-3,3.9785588E-4,4.8226118E-2,-9.6584874E-4,-3.5635573E-3,1.3745149E-3,1.0501241E-2,-3.7111414E-3,-9.302003E-4],"categories":[],"categories_nodes":[],"categories_segments":[],"categories_sizes":[],"default_left":[true,true,true,true,false,true,true,true,true,false,false,true,true,true,true,true,true,true,false,true,true,false,true,false,true,true,false,true,true,false,false,true,false,false,true,false,false,false,false,false,false,false,false,false,false,false,false,false,false],"id":21,"left_children":[1,3,5,7,-1,9,11,13,15,-1,-1,17,19,21,23,25,27,29,-1,31,33,-1,35,-1,37,39,-1,41,43,-1,-1,45,-1,-1,47,-1,-1,-1,-1,-1,-1,-1,-1,-1,-1,-1,-1,-1,-1],"loss_changes":[3.6283323E-4,2.2858945E-3,1.7602365E-3,3.020558E-4,0E0,1.3820333E-3,7.6504063E-4,8.2257064E-4,7.68965E-4,0E0,0E0,7.7219616E-4,2.796424E-4,2.0200283E-4,4.4305832E-4,3.9215134E-3,2.5031023E-4,9.60555E-6,0E0,1.1833962E-3,1.891353E-3,0E0,2.5451754E-4,0E0,1.9060774E-4,4.641155E-5,0E0,4.5342823E-3,4.1989464E-5,0E0,0E0,3.9432338E-4,0E0,0E0,1.0096519E-6,0E0,0E0,0E0,0E0,0E0,0E0,0E0,0E0,0E0,0E0,0E0,0E0,0E0,0E0],"parents":[2147483647,0,0,1,1,2,2,3,3,5,5,6,6,7,7,8,8,11,11,12,12,13,13,14,14,15,15,16,16,17,17,19,19,20,20,22,22,24,24,25,25,27,27,28,28,31,31,34,34],"right_children":[2,4,6,8,-1,10,12,14,16,-1,-1,18,20,22,24,26,28,30,-1,32,34,-1,36,-1,38,40,-1,42,44,-1,-1,46,-1,-1,48,-1,-1,-1,-1,-1,-1,-1,-1,-1,-1,-1,-1,-1,-1],"split_conditions":[7.551024E-1,7.52215E-1,7.8067493E-1,-7.2359085E-1,-1.006097E-2,-6.937045E-1,7.959341E-1,4.6462432E-1,-6.342881E-1,1.9074869E-3,1.2217891E-2,7.9263765E-1,-4.5033365E-1,-1.078161E0,4.6851313E-1,-6.355393E-1,1.1974188E0,-4.6195662E-1,-7.871191E-3,-4.6355987E-1,-4.2429483E-1,1.9957067E-3,-1.0331907E0,6.3334825E-3,5.8482635E-1,6.136417E-1,-1.4486719E-2,1.1937883E0,-1.0847313E0,7.218004E-4,-2.4747485E-4,-5.890784E-1,-6.828196E-3,1.0087681E-2,-2.7823776E-1,-3.8733047E-3,-3.3909664E-4,1.3876912E-4,1.978662E-3,-1.2772244E-4,1.4756084E-3,1.19356766E-4,1.4467836E-2,-2.8975462E-4,-1.0690673E-3,4.1235448E-4,3.1503725E-3,-1.1133425E-3,-2.790601E-4],"split_indices":[1,1,1,0,0,0,1,1,0,0,0,1,0,0,1,0,0,0,0,0,0,0,0,0,1,1,0,0,1,0,0,0,0,0,0,0,0,0,0,0,0,0,0,0,0,0,0,0,0],"split_type":[0,0,0,0,0,0,0,0,0,0,0,0,0,0,0,0,0,0,0,0,0,0,0,0,0,0,0,0,0,0,0,0,0,0,0,0,0,0,0,0,0,0,0,0,0,0,0,0,0],"sum_hessian":[4.99E2,3.77E2,1.22E2,3.76E2,1E0,5E0,1.17E2,5.6E1,3.2E2,4E0,1E0,3E0,1.14E2,2.9E1,2.7E1,1E1,3.1E2,2E0,1E0,1.09E2,5E0,2E0,2.7E1,1E0,2.6E1,9E0,1E0,2.26E2,8.4E1,1E0,1E0,1.08E2,1E0,1E0,4E0,1E0,2.6E1,7E0,1.9E1,8E0,1E0,2.25E2,1E0,7.8E1,6E0,1.04E2,4E0,3E0,1E0],"tree_param":{"num_deleted":"0","num_feature":"2","num_nodes":"49","size_leaf_vector":"0"}},{"base_weights":[4.8542858E-4,1.1777089E-4,1.6113569E-3,2.6930915E-4,-2.850608E-2,1.5565951E-2,8.881456E-4,3.8746468E-4,-4.6049906E-3,4.8322203E-3,3.4617305E-2,-1.0478865E-2,1.2757969E-3,2.0218379E-4,5.071217E-3,-4.1045703E-2,5.080811E-3,8.9598395E-4,-2.2301707E-2,9.330822E-4,7.3462664E-3,6.624356E-3,9.1827045E-5,-8.957386E-4,6.1403546E-3,-1.6077359E-4,6.854802E-3,2.0451546E-3,-7.011787E-4,1.2966252E-3,-1.9346554E-2,2.8581738E-2,-2.6171757E-3,-1.09743625E-2,1.2338972E-2,8.384163E-4,-9.622086E-4,7.833905E-3,7.947786E-4,-8.0382824E-4,5.6266785E-4,8.221078E-4,5.912137E-3],"categories":[],"categories_nodes":[],"categories_segments":[],"categories_sizes":[],"default_left":[true,true,true,true,false,true,true,true,true,false,false,true,true,true,true,false,true,true,false,true,true,true,true,false,true,true,false,false,false,true,false,false,false,false,false,false,false,false,false,false,false,false,false],"id":22,"left_children":[1,3,5,7,-1,9,11,13,15,-1,-1,17,19,21,23,-1,25,27,-1,29,31,33,35,-1,37,39,-1,-1,-1,41,-1,-1,-1,-1,-1,-1,-1,-1,-1,-1,-1,-1,-1],"loss_changes":[2.067883E-4,1.6472931E-3,1.227506E-3,2.1890816E-4,0E0,1.0596742E-3,5.3332845E-4,3.1919652E-4,3.3851631E-3,0E0,0E0,5.5791414E-4,2.3239582E-4,2.516996E-4,9.481309E-5,0E0,7.549023E-5,6.9402554E-6,0E0,8.360625E-4,1.3442738E-3,7.388318E-4,2.7701972E-4,2.218685E-7,1.0240977E-4,1.8479254E-6,0E0,0E0,0E0,2.3386494E-4,0E0,0E0,9.087671E-8,0E0,0E0,0E0,0E0,0E0,0E0,0E0,0E0,0E0,0E0],"parents":[2147483647,0,0,1,1,2,2,3,3,5,5,6,6,7,7,8,8,11,11,12,12,13,13,14,14,16,16,17,17,19,19,20,20,21,21,22,22,24,24,25,25,29,29],"right_children":[2,4,6,8,-1,10,12,14,16,-1,-1,18,20,22,24,-1,26,28,-1,30,32,34,36,-1,38,40,-1,-1,-1,42,-1,-1,-1,-1,-1,-1,-1,-1,-1,-1,-1,-1,-1],"split_conditions":[7.551024E-1,7.52215E-1,7.8067493E-1,7.104453E-1,-8.551824E-3,-6.937045E-1,7.959341E-1,6.6384745E-1,7.1756625E-1,1.4496661E-3,1.0385192E-2,7.9263765E-1,-4.5033365E-1,-1.024586E0,-9.161446E-1,-1.2313711E-2,-8.759667E-1,-4.6195662E-1,-6.6905124E-3,-4.6355987E-1,-4.2429483E-1,3.6956525E-1,-8.1030786E-2,-2.687216E-4,-6.26266E-1,-9.649882E-1,2.0564406E-3,6.135464E-4,-2.1035361E-4,-6.2802273E-1,-5.8039664E-3,8.574522E-3,-7.851527E-4,-3.292309E-3,3.7016917E-3,2.515249E-4,-2.886626E-4,2.3501716E-3,2.3843358E-4,-2.4114847E-4,1.6880035E-4,2.4663235E-4,1.7736412E-3],"split_indices":[1,1,1,1,0,0,1,1,1,0,0,1,0,0,0,0,0,0,0,0,0,1,1,0,0,0,0,0,0,0,0,0,0,0,0,0,0,0,0,0,0,0,0],"split_type":[0,0,0,0,0,0,0,0,0,0,0,0,0,0,0,0,0,0,0,0,0,0,0,0,0,0,0,0,0,0,0,0,0,0,0,0,0,0,0,0,0,0,0],"sum_hessian":[4.99E2,3.77E2,1.22E2,3.76E2,1E0,5E0,1.17E2,3.68E2,8E0,4E0,1E0,3E0,1.14E2,3.55E2,1.3E1,1E0,7E0,2E0,1E0,1.09E2,5E0,5E0,3.5E2,2E0,1.1E1,2E0,5E0,1E0,1E0,1.08E2,1E0,1E0,4E0,1E0,4E0,2.05E2,1.45E2,8E0,3E0,1E0,1E0,9.9E1,9E0],"tree_param":{"num_deleted":"0","num_feature":"2","num_nodes":"43","size_leaf_vector":"0"}},{"base_weights":[3.265646E-4,-1.0648528E-3,6.471215E-4,6.578692E-4,-1.3494609E-3,2.2548199E-2,5.3764053E-4,1.09709224E-4,3.8919747E-3,-1.1996348E-2,-9.2806696E-4,3.924533E-4,7.711649E-3,-1.2684359E-5,1.8037496E-3,4.0866435E-2,-2.862811E-3,3.5982754E-4,-5.7745684E-2,1.9722572E-2,9.4934215E-4,2.2548199E-2,2.1504897E-4,4.4186385E-3,3.2817185E-2,1.3844804E-3,-1.8018706E-2],"categories":[],"categories_nodes":[],"categories_segments":[],"categories_sizes":[],"default_left":[true,true,true,true,true,false,true,false,false,false,false,true,true,true,true,false,false,true,false,true,true,false,false,false,false,false,false],"id":23,"left_children":[1,3,5,7,9,-1,11,-1,-1,-1,-1,13,15,17,19,-1,-1,21,-1,23,25,-1,-1,-1,-1,-1,-1],"loss_changes":[2.2370335E-4,4.6976027E-5,9.6376194E-4,2.4392317E-5,3.5227585E-4,0E0,4.198528E-4,0E0,0E0,0E0,0E0,2.2815881E-4,2.9217442E-3,6.7092157E-3,1.3438642E-3,0E0,0E0,9.90995E-4,0E0,6.5658905E-4,7.347667E-4,0E0,0E0,0E0,0E0,0E0,0E0],"parents":[2147483647,0,0,1,1,2,2,3,3,4,4,6,6,11,11,12,12,13,13,14,14,17,17,19,19,20,20],"right_children":[2,4,6,8,10,-1,12,-1,-1,-1,-1,14,16,18,20,-1,-1,22,-1,24,26,-1,-1,-1,-1,-1,-1],"split_conditions":[-1.0893435E0,1.1223195E0,-1.0878819E0,1.0803277E0,1.196948E0,6.76446E-3,1.1580791E0,3.291277E-5,1.1675925E-3,-3.5989047E-3,-2.784201E-4,1.8046467E-2,1.2306046E0,1.2556227E-2,7.53705E-2,1.2259931E-2,-8.588434E-4,-6.149145E-1,-1.7323706E-2,5.11485E-2,6.925062E-2,6.76446E-3,6.4514694E-5,1.3255916E-3,9.845156E-3,4.1534414E-4,-5.405612E-3],"split_indices":[1,0,1,0,0,0,0,0,0,0,0,0,0,0,0,0,0,1,0,0,1,0,0,0,0,0,0],"split_type":[0,0,0,0,0,0,0,0,0,0,0,0,0,0,0,0,0,0,0,0,0,0,0,0,0,0,0],"sum_hessian":[4.99E2,9.3E1,4.06E2,1.3E1,8E1,1E0,4.05E2,1.2E1,1E0,2E0,7.8E1,3.98E2,7E0,3.1E2,8.8E1,1E0,6E0,3.09E2,1E0,3E0,8.5E1,1E0,3.08E2,2E0,1E0,8.4E1,1E0],"tree_param":{"num_deleted":"0","num_feature":"2","num_nodes":"27","size_leaf_vector":"0"}},{"base_weights":[2.509286E-4,-3.956677E-5,1.1416305E-3,8.904141E-5,-2.4262425E-2,1.2814839E-2,5.384026E-4,1.9898677E-4,-4.4286125E-3,3.620863E-3,2.9392362E-2,-8.955422E-3,8.639408E-4,2.4513667E-5,3.0890882E-3,-3.4921106E-2,3.7480877E-3,4.5112767E-3,1.5234947E-3,7.185761E-4,-1.8988708E-2,5.5483764E-4,6.386842E-3,4.651456E-3,-5.6260076E-5,4.008244E-3,-1.8193846E-3,1.4784922E-3,7.0379158E-3,1.7061234E-3,-6.282592E-4,8.62255E-4,-1.6476829E-2,2.426219E-2,-2.0406654E-3,-9.360465E-3,9.325934E-3,4.8749737E-4,-8.617117E-4,1.6829371E-3,5.33499E-3,-3.3874663E-3,-1.6753537E-4,-7.769184E-4,3.9928756E-3,4.218181E-3,3.232956E-4,-2.335656E-3,-4.303512E-4],"categories":[],"categories_nodes":[],"categories_segments":[],"categories_sizes":[],"default_left":[true,true,true,true,false,true,true,true,true,true,false,true,true,true,true,false,true,false,false,true,false,true,true,true,true,true,true,true,false,false,false,true,false,false,true,false,false,false,false,false,false,false,false,false,false,false,false,false,false],"id":24,"left_children":[1,3,5,7,-1,9,11,13,15,17,-1,19,21,23,25,-1,27,-1,-1,29,-1,31,33,35,37,39,41,43,-1,-1,-1,45,-1,-1,47,-1,-1,-1,-1,-1,-1,-1,-1,-1,-1,-1,-1,-1,-1],"loss_changes":[1.2941755E-4,1.1797277E-3,8.592178E-4,1.881353E-4,0E0,8.0805446E-4,3.724281E-4,1.8599068E-4,2.374839E-3,2.4647234E-6,0E0,4.018928E-4,1.9277816E-4,1.3069538E-4,1.02037215E-4,0E0,4.932712E-5,0E0,0E0,5.0620783E-6,0E0,5.9014856E-4,9.5337874E-4,4.8028553E-4,1.5108185E-4,4.6553207E-5,9.793419E-6,3.712794E-5,0E0,0E0,0E0,1.9578545E-4,0E0,0E0,1.3699864E-6,0E0,0E0,0E0,0E0,0E0,0E0,0E0,0E0,0E0,0E0,0E0,0E0,0E0,0E0],"parents":[2147483647,0,0,1,1,2,2,3,3,5,5,6,6,7,7,8,8,9,9,11,11,12,12,13,13,14,14,16,16,19,19,21,21,22,22,23,23,24,24,25,25,26,26,27,27,31,31,34,34],"right_children":[2,4,6,8,-1,10,12,14,16,18,-1,20,22,24,26,-1,28,-1,-1,30,-1,32,34,36,38,40,42,44,-1,-1,-1,46,-1,-1,48,-1,-1,-1,-1,-1,-1,-1,-1,-1,-1,-1,-1,-1,-1],"split_conditions":[7.551024E-1,7.52215E-1,7.8067493E-1,7.104453E-1,-7.278728E-3,-6.937045E-1,7.959341E-1,5.9081984E-1,7.1756625E-1,-8.4698844E-1,8.817709E-3,7.9263765E-1,-4.5033365E-1,-1.024586E0,-4.4015744E-1,-1.0476332E-2,-5.279803E-1,1.3533831E-3,4.5704845E-4,-4.6195662E-1,-5.6966124E-3,-4.6355987E-1,-4.2429483E-1,3.6956525E-1,-8.1030786E-2,-9.510814E-1,-3.5896316E-1,7.3474264E-1,2.1113749E-3,5.11837E-4,-1.8847777E-4,8.9113367E-1,-4.9430486E-3,7.278657E-3,-2.7823776E-1,-2.8081397E-3,2.79778E-3,1.4624922E-4,-2.5851352E-4,5.0488114E-4,1.600497E-3,-1.01624E-3,-5.0260613E-5,-2.3307552E-4,1.1978627E-3,1.2654543E-3,9.698868E-5,-7.0069684E-4,-1.2910536E-4],"split_indices":[1,1,1,1,0,0,1,1,1,0,0,1,0,0,0,0,0,0,0,0,0,0,0,1,1,0,0,1,0,0,0,1,0,0,0,0,0,0,0,0,0,0,0,0,0,0,0,0,0],"split_type":[0,0,0,0,0,0,0,0,0,0,0,0,0,0,0,0,0,0,0,0,0,0,0,0,0,0,0,0,0,0,0,0,0,0,0,0,0,0,0,0,0,0,0,0,0,0,0,0,0],"sum_hessian":[4.99E2,3.77E2,1.22E2,3.76E2,1E0,5E0,1.17E2,3.68E2,8E0,4E0,1E0,3E0,1.14E2,3.48E2,2E1,1E0,7E0,2E0,2E0,2E0,1E0,1.09E2,5E0,5E0,3.43E2,1.7E1,3E0,5E0,2E0,1E0,1E0,1.08E2,1E0,1E0,4E0,1E0,4E0,2.05E2,1.38E2,7E0,1E1,1E0,2E0,3E0,2E0,1.4E1,9.4E1,3E0,1E0],"tree_param":{"num_deleted":"0","num_feature":"2","num_nodes":"49","size_leaf_vector":"0"}},{"base_weights":[1.643672E-4,-9.185418E-4,4.140701E-4,4.104461E-4,-1.1369034E-3,1.9092858E-2,3.210365E-4,-5.567991E-5,3.235042E-3,-9.694576E-3,-7.9753733E-4,1.9242619E-4,6.695345E-3,-1.02729275E-4,1.389293E-3,3.466332E-2,-2.2519827E-3,1.1850377E-2,-3.293619E-4,-3.5950192E-4,1.1183357E-2,1.9092858E-2,6.5833093E-3,-8.827327E-6,-2.5328852E-2,8.245766E-3,-6.110099E-4,2.2897854E-2,-9.796511E-3],"categories":[],"categories_nodes":[],"categories_segments":[],"categories_sizes":[],"default_left":[true,true,true,true,true,false,true,false,false,false,false,true,true,true,true,false,false,true,true,true,true,false,false,false,false,false,false,false,false],"id":25,"left_children":[1,3,5,7,9,-1,11,-1,-1,-1,-1,13,15,17,19,-1,-1,21,23,25,27,-1,-1,-1,-1,-1,-1,-1,-1],"loss_changes":[1.355831E-4,2.7745431E-5,7.011368E-4,1.8612775E-5,2.2750712E-4,0E0,3.3155113E-4,0E0,0E0,0E0,0E0,1.4109418E-4,2.0799702E-3,8.734804E-4,1.3571173E-3,0E0,0E0,1.0318565E-4,2.5319478E-3,1.5221021E-4,3.1735427E-3,0E0,0E0,0E0,0E0,0E0,0E0,0E0,0E0],"parents":[2147483647,0,0,1,1,2,2,3,3,4,4,6,6,11,11,12,12,13,13,14,14,17,17,18,18,19,19,20,20],"right_children":[2,4,6,8,10,-1,12,-1,-1,-1,-1,14,16,18,20,-1,-1,22,24,26,28,-1,-1,-1,-1,-1,-1,-1,-1],"split_conditions":[-1.0893435E0,1.1223195E0,-1.0878819E0,1.0803277E0,1.196948E0,5.7278574E-3,1.1580791E0,-1.6703974E-5,9.705127E-4,-2.908373E-3,-2.3926121E-4,1.4236835E-1,1.2306046E0,-4.114275E-1,-3.013938E-1,1.0398996E-2,-6.7559484E-4,3.6734834E-2,7.670827E-2,1.9043604E-1,-4.1808125E-2,5.7278574E-3,1.974993E-3,-2.6481982E-6,-7.5986558E-3,2.47373E-3,-1.8330298E-4,6.8693566E-3,-2.9389535E-3],"split_indices":[1,0,1,0,0,0,0,0,0,0,0,0,0,1,1,0,0,0,0,0,1,0,0,0,0,0,0,0,0],"split_type":[0,0,0,0,0,0,0,0,0,0,0,0,0,0,0,0,0,0,0,0,0,0,0,0,0,0,0,0,0],"sum_hessian":[4.99E2,9.3E1,4.06E2,1.3E1,8E1,1E0,4.05E2,1.2E1,1E0,2E0,7.8E1,3.98E2,7E0,3.2E2,7.8E1,1E0,6E0,5E0,3.15E2,6.7E1,1.1E1,1E0,4E0,3.12E2,3E0,1E0,6.6E1,7E0,4E0],"tree_param":{"num_deleted":"0","num_feature":"2","num_nodes":"29","size_leaf_vector":"0"}},{"base_weights":[1.5421373E-4,-7.837373E-5,8.6774095E-4,3.081751E-5,-2.0621736E-2,1.0743936E-2,3.582078E-4,1.2709283E-4,-3.919895E-3,2.8987885E-3,2.4984837E-2,-7.6101404E-3,6.322529E-4,1.137288E-6,2.214302E-3,-2.9681616E-2,3.010522E-3,3.61077E-3,1.2205442E-3,6.1253074E-4,-1.6139077E-2,3.5838454E-4,5.5477973E-3,-5.0004496E-4,4.280643E-4,2.9251764E-3,-1.5382082E-3,1.1979806E-3,5.632098E-3,1.4514923E-3,-5.326962E-4,6.1862625E-4,-1.400398E-2,2.062416E-2,-1.5923075E-3,1.1127515E-4,-4.915563E-2,1.669316E-2,7.5975855E-5,1.0208742E-3,3.7922545E-3,-2.8780221E-3,-1.3226282E-4,-1.1760258E-3,2.6789904E-3,3.4690357E-4,6.2010763E-3],"categories":[],"categories_nodes":[],"categories_segments":[],"categories_sizes":[],"default_left":[true,true,true,true,false,true,true,true,true,true,false,true,true,true,true,false,true,false,false,true,false,true,true,true,true,true,true,true,false,false,false,true,false,false,false,false,false,false,false,false,false,false,false,false,false,false,false],"id":26,"left_children":[1,3,5,7,-1,9,11,13,15,17,-1,19,21,23,25,-1,27,-1,-1,29,-1,31,33,35,37,39,41,43,-1,-1,-1,45,-1,-1,-1,-1,-1,-1,-1,-1,-1,-1,-1,-1,-1,-1,-1],"loss_changes":[8.3046754E-5,8.4854814E-4,6.15118E-4,1.4389244E-4,0E0,5.9790607E-4,2.6248654E-4,9.700595E-5,1.6962123E-3,1.5672922E-6,0E0,2.904082E-4,1.5282613E-4,7.488896E-5,6.0518345E-5,0E0,3.1266572E-5,0E0,0E0,3.6556087E-6,0E0,4.198087E-4,6.787209E-4,4.7942754E-3,1.081088E-3,2.5849818E-5,7.1541645E-6,2.4246121E-5,0E0,0E0,0E0,1.6318854E-4,0E0,0E0,6.660521E-7,0E0,0E0,0E0,0E0,0E0,0E0,0E0,0E0,0E0,0E0,0E0,0E0],"parents":[2147483647,0,0,1,1,2,2,3,3,5,5,6,6,7,7,8,8,9,9,11,11,12,12,13,13,14,14,16,16,19,19,21,21,22,22,23,23,24,24,25,25,26,26,27,27,31,31],"right_children":[2,4,6,8,-1,10,12,14,16,18,-1,20,22,24,26,-1,28,-1,-1,30,-1,32,34,36,38,40,42,44,-1,-1,-1,46,-1,-1,-1,-1,-1,-1,-1,-1,-1,-1,-1,-1,-1,-1,-1],"split_conditions":[7.551024E-1,7.52215E-1,7.8067493E-1,7.104453E-1,-6.186521E-3,-6.937045E-1,7.959341E-1,5.9081984E-1,7.1756625E-1,-8.4698844E-1,7.4954513E-3,7.9263765E-1,-4.5033365E-1,1.8046467E-2,-4.4015744E-1,-8.904485E-3,-5.279803E-1,1.0832311E-3,3.6616327E-4,-4.6195662E-1,-4.8417235E-3,-4.6355987E-1,-4.2429483E-1,1.2556227E-2,7.53705E-2,-9.643178E-1,-3.5896316E-1,7.2753334E-1,1.6896294E-3,4.354477E-4,-1.5980887E-4,-5.890784E-1,-4.2011943E-3,6.1872485E-3,-4.7769226E-4,3.3382545E-5,-1.4746689E-2,5.0079483E-3,2.2792758E-5,3.062623E-4,1.1376764E-3,-8.634067E-4,-3.967885E-5,-3.5280775E-4,8.0369716E-4,1.0407108E-4,1.860323E-3],"split_indices":[1,1,1,1,0,0,1,1,1,0,0,1,0,0,0,0,0,0,0,0,0,0,0,0,0,0,0,1,0,0,0,0,0,0,0,0,0,0,0,0,0,0,0,0,0,0,0],"split_type":[0,0,0,0,0,0,0,0,0,0,0,0,0,0,0,0,0,0,0,0,0,0,0,0,0,0,0,0,0,0,0,0,0,0,0,0,0,0,0,0,0,0,0,0,0,0,0],"sum_hessian":[4.99E2,3.77E2,1.22E2,3.76E2,1E0,5E0,1.17E2,3.68E2,8E0,4E0,1E0,3E0,1.14E2,3.48E2,2E1,1E0,7E0,2E0,2E0,2E0,1E0,1.09E2,5E0,1.6E2,1.88E2,1.7E1,3E0,5E0,2E0,1E0,1E0,1.08E2,1E0,1E0,4E0,1.59E2,1E0,3E0,1.85E2,6E0,1.1E1,1E0,2E0,2E0,3E0,1.04E2,4E0],"tree_param":{"num_deleted":"0","num_feature":"2","num_nodes":"47","size_leaf_vector":"0"}},{"base_weights":[7.943142E-5,-6.888693E-4,2.5668164E-4,3.3418197E-4,-8.5718837E-4,1.6212225E-2,1.7745067E-4,-6.140195E-5,2.7383864E-3,-7.7708564E-3,-5.8379356E-4,6.2624626E-5,5.8822185E-3,-1.988473E-4,1.1948346E-3,2.9452443E-2,-1.6924484E-3,-5.9004757E-5,-2.2753915E-2,3.7409842E-2,1.9990421E-4,9.089837E-3,-3.193863E-4,5.787676E-4,-1.3728563E-2],"categories":[],"categories_nodes":[],"categories_segments":[],"categories_sizes":[],"default_left":[true,true,true,true,true,false,true,false,false,false,false,true,true,true,true,false,false,true,false,false,true,false,false,false,false],"id":27,"left_children":[1,3,5,7,9,-1,11,-1,-1,-1,-1,13,15,17,19,-1,-1,21,-1,-1,23,-1,-1,-1,-1],"loss_changes":[6.826755E-5,1.6473172E-5,5.116415E-4,1.3483047E-5,1.4856647E-4,0E0,2.6558433E-4,0E0,0E0,0E0,0E0,1.1835799E-4,1.4781395E-3,1.0237587E-3,2.6948776E-3,0E0,0E0,7.7473256E-4,0E0,0E0,3.9844267E-4,0E0,0E0,0E0,0E0],"parents":[2147483647,0,0,1,1,2,2,3,3,4,4,6,6,11,11,12,12,13,13,14,14,17,17,20,20],"right_children":[2,4,6,8,10,-1,12,-1,-1,-1,-1,14,16,18,20,-1,-1,22,-1,-1,24,-1,-1,-1,-1],"split_conditions":[-1.0893435E0,1.1223195E0,-1.0878819E0,1.0803277E0,1.196948E0,4.863668E-3,1.1580791E0,-1.8420586E-5,8.21516E-4,-2.331257E-3,-1.7513808E-4,1.9621524E-1,1.2306046E0,1.8013081E-1,2.097836E-1,8.835733E-3,-5.0773454E-4,-3.128423E-1,-6.826175E-3,1.1222953E-2,6.925062E-2,2.7269511E-3,-9.58159E-5,1.736303E-4,-4.118569E-3],"split_indices":[1,0,1,0,0,0,0,0,0,0,0,0,0,0,0,0,0,1,0,0,1,0,0,0,0],"split_type":[0,0,0,0,0,0,0,0,0,0,0,0,0,0,0,0,0,0,0,0,0,0,0,0,0],"sum_hessian":[4.99E2,9.3E1,4.06E2,1.3E1,8E1,1E0,4.05E2,1.2E1,1E0,2E0,7.8E1,3.98E2,7E0,3.24E2,7.4E1,1E0,6E0,3.23E2,1E0,1E0,7.3E1,8E0,3.15E2,7.2E1,1E0],"tree_param":{"num_deleted":"0","num_feature":"2","num_nodes":"25","size_leaf_vector":"0"}},{"base_weights":[8.475574E-5,-1.3721362E-4,7.6621637E-4,-4.484247E-5,-1.7480567E-2,9.091456E-3,3.3640573E-4,3.736324E-5,-3.410294E-3,2.3957253E-3,2.1285057E-2,-6.3967267E-3,5.676764E-4,-1.4038594E-4,1.1742107E-3,-2.5181465E-2,2.4587854E-3,5.8456964E-4,-1.3670308E-2,3.2539383E-4,4.91491E-3,-7.477334E-4,3.671176E-4,1.4695287E-2,5.9836655E-4,9.936028E-4,4.5695556E-3,1.2817383E-3,-4.048838E-4,5.4591073E-4,-1.1855475E-2,1.7578483E-2,-1.1335011E-3,1.9086123E-2,-1.1557462E-3,3.1798363E-2,3.7290583E-6,1.6380273E-3,-3.8433442E-4,-5.5272377E-4,2.7241707E-3,2.9146036E-3,1.6616019E-4,-1.3780161E-3,-7.772035E-5],"categories":[],"categories_nodes":[],"categories_segments":[],"categories_sizes":[],"default_left":[true,true,true,true,false,true,true,true,true,false,false,true,true,true,true,false,true,true,false,true,true,true,true,false,true,true,false,false,false,true,false,false,true,false,false,false,false,false,false,false,false,false,false,false,false],"id":28,"left_children":[1,3,5,7,-1,9,11,13,15,-1,-1,17,19,21,23,-1,25,27,-1,29,31,33,35,-1,37,39,-1,-1,-1,41,-1,-1,43,-1,-1,-1,-1,-1,-1,-1,-1,-1,-1,-1,-1],"loss_changes":[7.5736825E-5,6.0478173E-4,4.3706968E-4,1.0442799E-4,0E0,4.3887726E-4,1.8737803E-4,7.473003E-5,1.2119063E-3,7.022827E-7,0E0,2.1110733E-4,1.1952549E-4,9.890843E-5,3.8050846E-4,0E0,2.0200983E-5,2.5884028E-6,0E0,3.0194168E-4,4.7949218E-4,1.2035588E-3,1.9986883E-3,0E0,5.069165E-5,1.7561852E-5,0E0,0E0,0E0,9.756257E-5,0E0,0E0,1.1836714E-6,0E0,0E0,0E0,0E0,0E0,0E0,0E0,0E0,0E0,0E0,0E0,0E0],"parents":[2147483647,0,0,1,1,2,2,3,3,5,5,6,6,7,7,8,8,11,11,12,12,13,13,14,14,16,16,17,17,19,19,20,20,21,21,22,22,24,24,25,25,29,29,32,32],"right_children":[2,4,6,8,-1,10,12,14,16,-1,-1,18,20,22,24,-1,26,28,-1,30,32,34,36,-1,38,40,-1,-1,-1,42,-1,-1,44,-1,-1,-1,-1,-1,-1,-1,-1,-1,-1,-1,-1],"split_conditions":[7.551024E-1,7.52215E-1,7.8067493E-1,7.104453E-1,-5.2441703E-3,-6.937045E-1,7.959341E-1,4.6462432E-1,7.1756625E-1,7.1871764E-4,6.3855173E-3,7.9263765E-1,-4.5033365E-1,1.9621524E-1,4.6851313E-1,-7.55444E-3,-5.279803E-1,-4.6195662E-1,-4.1010925E-3,-4.6355987E-1,-4.2429483E-1,-7.7981126E-1,2.097836E-1,4.4085863E-3,-7.231363E-1,7.3474264E-1,1.3708668E-3,3.845215E-4,-1.2146514E-4,8.9113367E-1,-3.5566424E-3,5.273545E-3,-2.7823776E-1,5.725837E-3,-3.4672386E-4,9.539509E-3,1.1187176E-6,4.914082E-4,-1.1530033E-4,-1.6581714E-4,8.172512E-4,8.743811E-4,4.984806E-5,-4.1340484E-4,-2.3316106E-5],"split_indices":[1,1,1,1,0,0,1,1,1,0,0,1,0,0,1,0,0,0,0,0,0,1,0,0,0,1,0,0,0,1,0,0,0,0,0,0,0,0,0,0,0,0,0,0,0],"split_type":[0,0,0,0,0,0,0,0,0,0,0,0,0,0,0,0,0,0,0,0,0,0,0,0,0,0,0,0,0,0,0,0,0,0,0,0,0,0,0,0,0,0,0,0,0],"sum_hessian":[4.99E2,3.77E2,1.22E2,3.76E2,1E0,5E0,1.17E2,3.68E2,8E0,4E0,1E0,3E0,1.14E2,3.19E2,4.9E1,1E0,7E0,2E0,1E0,1.09E2,5E0,1.45E2,1.74E2,1E0,4.8E1,5E0,2E0,1E0,1E0,1.08E2,1E0,1E0,4E0,2E0,1.43E2,1E0,1.73E2,2.3E1,2.5E1,3E0,2E0,1.4E1,9.4E1,3E0,1E0],"tree_param":{"num_deleted":"0","num_feature":"2","num_nodes":"45","size_leaf_vector":"0"}},{"base_weights":[8.8129505E-5,-2.9575123E-4,2.9757014E-4,1.7485266E-4,-4.156102E-2,2.5540113E-2,1.4034829E-4,7.85296E-3,-2.8596132E-4,-1.8074326E-4,1.1362958E-2,1.5268882E-2,4.09037E-3,-5.688076E-4,4.704128E-4,1.11998925E-4,-1.30774E-2,1.5700787E-2,-1.1669838E-2,-2.2583478E-4,-6.8824424E-4,-6.3175627E-4,2.503401E-2,-3.0152234E-3,2.2667267E-4,8.017778E-3,-2.3119027E-2,3.7977397E-3,2.2083068E-2,-3.7833303E-4,2.3270547E-3,-3.4317572E-3,-4.864875E-4,4.8414528E-5,7.311167E-4],"categories":[],"categories_nodes":[],"categories_segments":[],"categories_sizes":[],"default_left":[true,true,true,true,false,false,true,true,true,true,true,false,false,true,true,true,true,true,false,true,true,false,false,false,true,false,false,false,false,false,false,false,false,false,false],"id":29,"left_children":[1,3,5,7,-1,-1,9,11,13,15,17,-1,-1,19,21,23,25,27,-1,29,31,-1,-1,-1,33,-1,-1,-1,-1,-1,-1,-1,-1,-1,-1],"loss_changes":[4.028812E-5,3.4445354E-3,1.2822676E-3,6.249652E-4,0E0,0E0,1.1659794E-3,2.165754E-4,3.5995155E-5,1.1907142E-3,1.0824365E-3,0E0,0E0,4.8421207E-6,1.2611843E-3,1.1149405E-4,1.6681727E-3,5.238829E-4,0E0,1.372767E-5,4.8147493E-5,0E0,0E0,0E0,2.6851061E-5,0E0,0E0,0E0,0E0,0E0,0E0,0E0,0E0,0E0,0E0],"parents":[2147483647,0,0,1,1,2,2,3,3,6,6,7,7,8,8,9,9,10,10,13,13,14,14,15,15,16,16,17,17,19,19,20,20,24,24],"right_children":[2,4,6,8,-1,-1,10,12,14,16,18,-1,-1,20,22,24,26,28,-1,30,32,-1,-1,-1,34,-1,-1,-1,-1,-1,-1,-1,-1,-1,-1],"split_conditions":[-3.0051225E-1,-3.128423E-1,-2.9300383E-1,1.9043604E-1,-1.2468306E-2,7.662034E-3,1.9621524E-1,-7.7981126E-1,-8.316575E-1,6.522865E-2,6.925062E-2,4.580665E-3,1.2271111E-3,1.1130688E0,1.1513284E0,-1.5450671E-1,-1.8740611E-1,-1.4338577E-1,-3.5009515E-3,1.0803277E0,1.196948E0,-1.895269E-4,7.5102034E-3,-9.045671E-4,9.7871375E-1,2.4053336E-3,-6.935708E-3,1.139322E-3,6.6249208E-3,-1.1349991E-4,6.9811643E-4,-1.0295272E-3,-1.4594625E-4,1.4524358E-5,2.1933501E-4],"split_indices":[1,1,1,0,0,0,0,1,1,0,1,0,0,0,0,1,1,1,0,0,0,0,0,0,1,0,0,0,0,0,0,0,0,0,0],"split_type":[0,0,0,0,0,0,0,0,0,0,0,0,0,0,0,0,0,0,0,0,0,0,0,0,0,0,0,0,0,0,0,0,0,0,0],"sum_hessian":[4.99E2,1.76E2,3.23E2,1.75E2,1E0,1E0,3.22E2,9E0,1.66E2,3.14E2,8E0,2E0,7E0,1.21E2,4.5E1,3.08E2,6E0,7E0,1E0,3.2E1,8.9E1,4.4E1,1E0,1E1,2.98E2,2E0,4E0,3E0,4E0,3.1E1,1E0,5E0,8.4E1,2.21E2,7.7E1],"tree_param":{"num_deleted":"0","num_feature":"2","num_nodes":"35","size_leaf_vector":"0"}},{"base_weights":[7.526855E-5,-2.0664987E-4,2.2904723E-4,1.9361761E-4,-3.5326865E-2,2.1709085E-2,9.5334784E-5,6.077845E-3,-1.5989071E-4,-1.430376E-4,8.427775E-3,1.22151375E-2,3.0166297E-3,-4.0303633E-4,4.884497E-4,7.6222306E-5,-9.801362E-3,1.1961088E-2,-9.919362E-3,1.9636084E-3,5.193889E-3,-9.673337E-5,-5.251498E-4,-4.4642555E-4,2.1278918E-2,-2.024107E-3,1.6789927E-4,6.4142547E-3,-1.757046E-2,2.0622611E-2,5.6368113E-3,1.97801E-3,-2.1252633E-4,-5.5310726E-3,-3.4229195E-4,-2.4236003E-3,-9.0019783E-4,-2.3053815E-5,4.3821544E-4,2.9432774E-3,7.3492527E-3],"categories":[],"categories_nodes":[],"categories_segments":[],"categories_sizes":[],"default_left":[true,true,true,true,false,false,true,true,true,true,true,false,true,true,true,true,true,true,false,false,false,true,true,false,false,true,true,false,false,false,true,false,false,false,false,false,false,false,false,false,false],"id":30,"left_children":[1,3,5,7,-1,-1,9,11,13,15,17,-1,19,21,23,25,27,29,-1,-1,-1,31,33,-1,-1,35,37,-1,-1,-1,39,-1,-1,-1,-1,-1,-1,-1,-1,-1,-1],"loss_changes":[2.1723854E-5,2.495014E-3,9.2850643E-4,3.6707352E-4,0E0,0E0,6.427557E-4,1.5102717E-4,2.6522936E-5,6.678173E-4,7.0208195E-4,0E0,8.142844E-6,4.5124525E-6,9.035781E-4,5.9838356E-5,9.945664E-4,3.219772E-4,0E0,0E0,0E0,9.069043E-6,7.774416E-5,0E0,0E0,3.655201E-6,1.5340562E-5,0E0,0E0,0E0,6.0442253E-6,0E0,0E0,0E0,0E0,0E0,0E0,0E0,0E0,0E0,0E0],"parents":[2147483647,0,0,1,1,2,2,3,3,6,6,7,7,8,8,9,9,10,10,12,12,13,13,14,14,15,15,16,16,17,17,21,21,22,22,25,25,26,26,30,30],"right_children":[2,4,6,8,-1,-1,10,12,14,16,18,-1,20,22,24,26,28,30,-1,-1,-1,32,34,-1,-1,36,38,-1,-1,-1,40,-1,-1,-1,-1,-1,-1,-1,-1,-1,-1],"split_conditions":[-3.0051225E-1,-3.128423E-1,-2.9300383E-1,1.9043604E-1,-1.059806E-2,6.5127257E-3,1.9621524E-1,-7.7981126E-1,-8.316575E-1,6.522865E-2,6.925062E-2,3.6645413E-3,1.4796823E-1,1.126966E0,1.1513284E0,-1.393016E-1,-1.8740611E-1,3.513236E-1,-2.9758087E-3,5.8908254E-4,1.5581668E-3,-1.503062E0,1.196948E0,-1.3392766E-4,6.3836756E-3,-1.7373627E-1,7.551024E-1,1.9242765E-3,-5.271138E-3,6.186784E-3,-7.436477E-2,5.93403E-4,-6.37579E-5,-1.6593218E-3,-1.0268759E-4,-7.270801E-4,-2.7005936E-4,-6.9161447E-6,1.3146464E-4,8.8298327E-4,2.2047758E-3],"split_indices":[1,1,1,0,0,0,0,1,1,0,1,0,0,0,0,1,1,0,0,0,0,1,0,0,0,1,1,0,0,0,1,0,0,0,0,0,0,0,0,0,0],"split_type":[0,0,0,0,0,0,0,0,0,0,0,0,0,0,0,0,0,0,0,0,0,0,0,0,0,0,0,0,0,0,0,0,0,0,0,0,0,0,0,0,0],"sum_hessian":[4.99E2,1.76E2,3.23E2,1.75E2,1E0,1E0,3.22E2,9E0,1.66E2,3.14E2,8E0,2E0,7E0,1.21E2,4.5E1,3.08E2,6E0,7E0,1E0,6E0,1E0,3.5E1,8.6E1,4.4E1,1E0,1.2E1,2.96E2,2E0,4E0,2E0,5E0,1E0,3.4E1,2E0,8.4E1,8E0,4E0,1.74E2,1.22E2,3E0,2E0],"tree_param":{"num_deleted":"0","num_feature":"2","num_nodes":"41","size_leaf_vector":"0"}},{"base_weights":[7.03497E-5,-1.4336672E-4,1.8688505E-4,1.970441E-4,-3.0027835E-2,1.8452704E-2,7.320542E-5,4.8356582E-3,-8.189714E-5,-1.13486494E-4,6.5992884E-3,8.036208E-3,1.3625905E-3,-2.9227432E-4,4.7784008E-4,5.0567265E-5,-7.339076E-3,2.062273E-2,2.2685172E-3,9.772141E-3,3.6215384E-3,-5.304648E-5,-3.8790566E-4,-3.154119E-4,1.8087089E-2,-1.493578E-3,1.1798585E-4,5.1314034E-3,-1.3353549E-2,-8.431458E-3,5.001579E-3,1.0175109E-3,4.414797E-3,1.681298E-3,-1.5063626E-4,-4.42489E-3,-2.4086026E-4,-1.7773068E-3,-6.841504E-4,1.6230613E-3,8.137584E-5,2.28104E-3,6.4717233E-3],"categories":[],"categories_nodes":[],"categories_segments":[],"categories_sizes":[],"default_left":[true,true,true,true,false,false,true,true,true,true,true,true,false,true,true,true,true,false,true,false,true,true,true,false,false,true,true,false,false,false,true,false,false,false,false,false,false,false,false,false,false,false,false],"id":31,"left_children":[1,3,5,7,-1,-1,9,11,13,15,17,19,-1,21,23,25,27,-1,29,-1,31,33,35,-1,-1,37,39,-1,-1,-1,41,-1,-1,-1,-1,-1,-1,-1,-1,-1,-1,-1,-1],"loss_changes":[1.2479552E-5,1.806537E-3,6.714195E-4,2.2812256E-4,0E0,0E0,3.9428147E-4,1.00207224E-4,1.98049E-5,3.7376743E-4,4.998079E-4,2.9276707E-6,0E0,2.7705E-6,6.482592E-4,3.2344382E-5,5.9354596E-4,0E0,2.7612015E-4,0E0,1.7048988E-6,6.3464195E-6,5.0579154E-5,0E0,0E0,1.7696111E-6,1.6232869E-5,0E0,0E0,0E0,1.3234836E-5,0E0,0E0,0E0,0E0,0E0,0E0,0E0,0E0,0E0,0E0,0E0,0E0],"parents":[2147483647,0,0,1,1,2,2,3,3,6,6,7,7,8,8,9,9,10,10,11,11,13,13,14,14,15,15,16,16,18,18,20,20,21,21,22,22,25,25,26,26,30,30],"right_children":[2,4,6,8,-1,-1,10,12,14,16,18,20,-1,22,24,26,28,-1,30,-1,32,34,36,-1,-1,38,40,-1,-1,-1,42,-1,-1,-1,-1,-1,-1,-1,-1,-1,-1,-1,-1],"split_conditions":[-3.0051225E-1,-3.128423E-1,-2.9300383E-1,1.9043604E-1,-9.008351E-3,5.535811E-3,1.9621524E-1,-5.8400947E-1,-8.316575E-1,6.522865E-2,2.4589422E-1,5.7637043E-2,4.0877715E-4,1.126966E0,1.1513284E0,-1.393016E-1,-1.8740611E-1,6.186819E-3,2.9862198E-1,2.9316426E-3,1.4796823E-1,-1.503062E0,1.196948E0,-9.4623574E-5,5.426127E-3,-1.7373627E-1,-8.213453E-2,1.5394212E-3,-4.006065E-3,-2.5294374E-3,-1.4338577E-1,3.0525328E-4,1.3244391E-3,5.043894E-4,-4.5190878E-5,-1.327467E-3,-7.225808E-5,-5.3319207E-4,-2.0524512E-4,4.869184E-4,2.4412753E-5,6.84312E-4,1.9415171E-3],"split_indices":[1,1,1,0,0,0,0,1,1,0,0,0,0,0,0,1,1,0,0,0,0,1,0,0,0,1,1,0,0,0,1,0,0,0,0,0,0,0,0,0,0,0,0],"split_type":[0,0,0,0,0,0,0,0,0,0,0,0,0,0,0,0,0,0,0,0,0,0,0,0,0,0,0,0,0,0,0,0,0,0,0,0,0,0,0,0,0,0,0],"sum_hessian":[4.99E2,1.76E2,3.23E2,1.75E2,1E0,1E0,3.22E2,9E0,1.66E2,3.14E2,8E0,4E0,5E0,1.21E2,4.5E1,3.08E2,6E0,1E0,7E0,2E0,2E0,3.5E1,8.6E1,4.4E1,1E0,1.2E1,2.96E2,2E0,4E0,1E0,6E0,1E0,1E0,1E0,3.4E1,2E0,8.4E1,8E0,4E0,6E0,2.9E2,3E0,3E0],"tree_param":{"num_deleted":"0","num_feature":"2","num_nodes":"43","size_leaf_vector":"0"}},{"base_weights":[6.823049E-5,-5.624899E-5,2.7335942E-4,1.0770943E-4,-2.5523659E-2,8.325441E-3,9.87267E-5,7.817745E-3,3.2506137E-5,6.440659E-4,1.5684783E-2,2.2562407E-4,-4.540083E-3,2.4502527E-4,-2.2578498E-4,3.317659E-5,1.7529309E-2,-1.2151833E-2,4.5850277E-3,8.263144E-4,-1.7014027E-4,-2.1420253E-2,8.079575E-5,1.5999604E-4,-4.462867E-3,-2.729921E-4,1.9026677E-3,-1.646777E-3,3.086851E-5,1.800716E-2,-1.795921E-4,3.3036172E-3,1.1119772E-5,-7.1553653E-3,3.1535625E-3],"categories":[],"categories_nodes":[],"categories_segments":[],"categories_sizes":[],"default_left":[true,true,true,true,false,true,true,false,true,false,false,true,true,true,true,true,false,false,false,true,true,false,true,true,true,false,false,false,false,false,false,false,false,false,false],"id":32,"left_children":[1,3,5,7,-1,9,11,-1,13,-1,-1,15,17,19,21,23,-1,-1,-1,25,27,-1,29,31,33,-1,-1,-1,-1,-1,-1,-1,-1,-1,-1],"loss_changes":[1.2782548E-5,1.3055352E-3,2.6494171E-4,1.8006991E-4,0E0,2.1601748E-4,1.1051377E-4,0E0,1.701689E-5,0E0,0E0,6.054877E-4,4.0300674E-4,4.1166895E-5,9.114249E-4,1.0391768E-4,0E0,0E0,0E0,8.452961E-5,2.973253E-5,0E0,6.5205916E-4,8.280114E-5,1.2510101E-4,0E0,0E0,0E0,0E0,0E0,0E0,0E0,0E0,0E0,0E0],"parents":[2147483647,0,0,1,1,2,2,3,3,5,5,6,6,8,8,11,11,12,12,13,13,14,14,15,15,19,19,20,20,22,22,23,23,24,24],"right_children":[2,4,6,8,-1,10,12,-1,14,-1,-1,16,18,20,22,24,-1,-1,-1,26,28,-1,30,32,34,-1,-1,-1,-1,-1,-1,-1,-1,-1,-1],"split_conditions":[1.8046467E-2,1.2556227E-2,7.53705E-2,-6.149145E-1,-7.657098E-3,5.11485E-2,-4.1808125E-2,2.3453236E-3,-6.355393E-1,1.9321978E-4,4.705435E-3,-9.6134774E-2,3.530039E-1,8.000245E-1,-6.3430667E-1,-1.53548E-1,5.258793E-3,-3.64555E-3,1.3755084E-3,4.6462432E-1,8.9069676E-1,-6.4260764E-3,-6.33538E-1,1.9369918E-1,2.2510292E-1,-8.189763E-5,5.7080033E-4,-4.9403316E-4,9.260553E-6,5.402148E-3,-5.3877633E-5,9.910852E-4,3.3359318E-6,-2.1466096E-3,9.460688E-4],"split_indices":[0,0,0,1,0,0,1,0,0,0,0,1,0,1,0,1,0,0,0,1,1,0,0,0,0,0,0,0,0,0,0,0,0,0,0],"split_type":[0,0,0,0,0,0,0,0,0,0,0,0,0,0,0,0,0,0,0,0,0,0,0,0,0,0,0,0,0,0,0,0,0,0,0],"sum_hessian":[4.99E2,3.11E2,1.88E2,3.1E2,1E0,3E0,1.85E2,2E0,3.08E2,2E0,1E0,1.81E2,4E0,1.69E2,1.39E2,1.8E2,1E0,2E0,2E0,7E1,9.9E1,1E0,1.38E2,1.76E2,4E0,3.5E1,3.5E1,1.1E1,8.8E1,1E0,1.37E2,7E0,1.69E2,3E0,1E0],"tree_param":{"num_deleted":"0","num_feature":"2","num_nodes":"35","size_leaf_vector":"0"}},{"base_weights":[5.0346734E-5,-5.9848804E-5,2.3199045E-4,7.947715E-5,-2.169511E-2,7.052474E-3,8.406612E-5,6.254196E-3,1.9271209E-5,5.1525276E-4,1.3332069E-2,1.8569629E-4,-3.6320854E-3,-9.915153E-5,3.483092E-4,2.2082355E-5,1.48999095E-2,-9.721466E-3,3.6679904E-3,1.0283053E-4,-1.1435855E-2,-1.2356558E-5,1.4781117E-2,1.1761276E-4,-3.3641104E-3,-1.0948263E-4,2.0668784E-3,-1.4221114E-2,-1.5400378E-3,-7.151946E-5,1.1444092E-3,1.9901367E-5,2.8990705E-3,-5.545408E-3,2.68054E-3],"categories":[],"categories_nodes":[],"categories_segments":[],"categories_sizes":[],"default_left":[true,true,true,true,false,true,true,false,true,false,false,true,true,true,true,true,false,false,false,true,true,true,false,true,true,false,false,false,false,false,false,false,false,false,false],"id":33,"left_children":[1,3,5,7,-1,9,11,-1,13,-1,-1,15,17,19,21,23,-1,-1,-1,25,27,29,-1,31,33,-1,-1,-1,-1,-1,-1,-1,-1,-1,-1],"loss_changes":[1.0022047E-5,9.4220246E-4,1.9009216E-4,1.15495204E-4,0E0,1.5733502E-4,7.092167E-5,0E0,1.20749E-5,0E0,0E0,4.3782697E-4,2.5792295E-4,5.232528E-4,4.2702706E-4,5.8946334E-5,0E0,0E0,0E0,9.404977E-5,8.8348635E-5,5.6252948E-6,0E0,4.8047386E-5,8.079059E-5,0E0,0E0,0E0,0E0,0E0,0E0,0E0,0E0,0E0,0E0],"parents":[2147483647,0,0,1,1,2,2,3,3,5,5,6,6,8,8,11,11,12,12,13,13,14,14,15,15,19,19,20,20,21,21,23,23,24,24],"right_children":[2,4,6,8,-1,10,12,-1,14,-1,-1,16,18,20,22,24,-1,-1,-1,26,28,30,-1,32,34,-1,-1,-1,-1,-1,-1,-1,-1,-1,-1],"split_conditions":[1.8046467E-2,1.2556227E-2,7.53705E-2,-6.149145E-1,-6.508533E-3,5.11485E-2,-4.1808125E-2,1.8762589E-3,9.566498E-1,1.5457583E-4,3.9996207E-3,-9.6134774E-2,3.530039E-1,9.3968534E-1,-4.62868E-1,-1.53548E-1,4.469973E-3,-2.91644E-3,1.1003972E-3,8.424835E-1,-3.7305027E-1,-5.515198E-1,4.4343355E-3,-3.013938E-1,2.2510292E-1,-3.284479E-5,6.200635E-4,-4.266334E-3,-4.6201135E-4,-2.1455839E-5,3.4332275E-4,5.9704103E-6,8.697212E-4,-1.6636224E-3,8.0416206E-4],"split_indices":[0,0,0,1,0,0,1,0,1,0,0,1,0,1,0,1,0,0,0,1,0,0,0,1,0,0,0,0,0,0,0,0,0,0,0],"split_type":[0,0,0,0,0,0,0,0,0,0,0,0,0,0,0,0,0,0,0,0,0,0,0,0,0,0,0,0,0,0,0,0,0,0,0],"sum_hessian":[4.99E2,3.11E2,1.88E2,3.1E2,1E0,3E0,1.85E2,2E0,3.08E2,2E0,1E0,1.81E2,4E0,2.27E2,8.1E1,1.8E2,1E0,2E0,2E0,2.24E2,3E0,8E1,1E0,1.76E2,4E0,2.03E2,2.1E1,2E0,1E0,7.7E1,3E0,1.71E2,5E0,3E0,1E0],"tree_param":{"num_deleted":"0","num_feature":"2","num_nodes":"35","size_leaf_vector":"0"}},{"base_weights":[4.086192E-5,1.2980669E-4,-2.0808869E-4,-1.8863628E-3,1.6268365E-4,-1.8190792E-2,6.804485E-5,8.2001684E-4,-7.7091306E-3,1.2206078E-2,9.5880685E-5,-1.4607189E-4,3.378349E-3,1.5265346E-3,-1.003027E-3,4.5066856E-5,1.3593779E-3,1.2054323E-4,-4.6195737E-3,1.2563944E-2,2.7127186E-4,5.845335E-5,-2.31341E-3,-1.0219415E-3,1.8414262E-3,-3.8660867E-3,3.686313E-4,-8.971171E-3,8.869171E-4,3.816659E-3,-9.5573586E-4,-1.0192883E-4,2.2220591E-4,3.7765503E-4,-1.9105673E-3,2.397749E-3,1.2934316E-4,4.3327632E-4,-1.4831132E-2,-1.2722924E-4,6.830722E-3,1.7215087E-3,-1.3109234E-2],"categories":[],"categories_nodes":[],"categories_segments":[],"categories_sizes":[],"default_left":[true,true,true,true,true,false,true,true,false,false,true,true,true,false,false,true,true,true,true,false,true,true,false,true,true,true,true,true,false,false,false,false,false,false,false,false,false,false,false,false,false,false,false],"id":34,"left_children":[1,3,5,7,9,-1,11,13,-1,-1,15,17,19,-1,-1,21,23,25,27,-1,29,31,-1,33,35,37,39,41,-1,-1,-1,-1,-1,-1,-1,-1,-1,-1,-1,-1,-1,-1,-1],"loss_changes":[1.1098439E-5,2.4766232E-5,6.5670063E-4,1.0087334E-4,2.9168016E-4,0E0,9.334517E-5,7.971219E-6,0E0,0E0,2.3244475E-5,1.4845206E-4,2.2491455E-4,0E0,0E0,1.1185335E-5,1.7952585E-5,1.18131335E-4,1.756909E-4,0E0,3.409924E-5,9.188434E-6,0E0,4.4526882E-6,1.1119519E-5,3.3642497E-4,3.5975018E-4,1.9955556E-4,0E0,0E0,6.2067784E-7,0E0,0E0,0E0,0E0,0E0,0E0,0E0,0E0,0E0,0E0,0E0,0E0],"parents":[2147483647,0,0,1,1,2,2,3,3,4,4,6,6,7,7,10,10,11,11,12,12,15,15,16,16,17,17,18,18,20,20,21,21,23,23,24,24,25,25,26,26,27,27],"right_children":[2,4,6,8,10,-1,12,14,-1,-1,16,18,20,-1,-1,22,24,26,28,-1,30,32,-1,34,36,38,40,42,-1,-1,-1,-1,-1,-1,-1,-1,-1,-1,-1,-1,-1,-1,-1],"split_conditions":[7.104453E-1,-1.0339193E0,7.1756625E-1,-1.0518323E0,-1.024586E0,-5.457238E-3,-4.5033365E-1,-1.0874691E0,-2.3127394E-3,3.6618235E-3,6.4953756E-1,-5.3371084E-1,-4.2429483E-1,4.5796038E-4,-3.009081E-4,6.360091E-1,-9.161446E-1,7.551024E-1,9.677614E-1,3.7691833E-3,7.506486E-1,-3.0051225E-1,-6.94023E-4,-9.943961E-1,-6.26266E-1,7.52215E-1,-6.37362E-1,7.625459E-1,2.6607513E-4,1.1449978E-3,-2.8672078E-4,-3.0578653E-5,6.666178E-5,1.1329651E-4,-5.731702E-4,7.1932474E-4,3.8802948E-5,1.299829E-4,-4.44934E-3,-3.8168775E-5,2.0492168E-3,5.1645265E-4,-3.9327703E-3],"split_indices":[1,0,1,0,0,0,0,0,0,0,1,0,0,0,0,1,0,1,1,0,1,1,0,0,0,1,0,1,0,0,0,0,0,0,0,0,0,0,0,0,0,0,0],"split_type":[0,0,0,0,0,0,0,0,0,0,0,0,0,0,0,0,0,0,0,0,0,0,0,0,0,0,0,0,0,0,0,0,0,0,0,0,0,0,0,0,0,0,0],"sum_hessian":[4.99E2,3.68E2,1.31E2,5E0,3.63E2,1E0,1.3E2,4E0,1E0,1E0,3.62E2,1.23E2,7E0,3E0,1E0,3.49E2,1.3E1,1.17E2,6E0,1E0,6E0,3.48E2,1E0,2E0,1.1E1,6E0,1.11E2,3E0,3E0,1E0,5E0,1.76E2,1.72E2,1E0,1E0,8E0,3E0,5E0,1E0,1.04E2,7E0,1E0,2E0],"tree_param":{"num_deleted":"0","num_feature":"2","num_nodes":"43","size_leaf_vector":"0"}},{"base_weights":[1.8320012E-5,-1.0402721E-4,2.2019309E-4,1.4130607E-5,-1.8425554E-2,5.925298E-3,9.6318836E-5,5.0237975E-3,-3.4552664E-5,3.67761E-4,1.12989545E-2,1.7972688E-4,-2.9589976E-3,-8.4011623E-4,6.525322E-6,4.1144205E-5,1.2631595E-2,-7.821614E-3,2.889951E-3,4.9584167E-4,-1.0837899E-3,-1.1474773E-4,3.33881E-4,1.14958166E-4,-2.5800988E-3,-5.879583E-5,-4.0677343E-3,1.0679364E-2,6.774369E-5,2.217725E-3,1.532821E-5,-4.3476876E-3,2.2451282E-3],"categories":[],"categories_nodes":[],"categories_segments":[],"categories_sizes":[],"default_left":[true,true,true,true,false,true,true,false,true,false,false,true,true,true,true,true,false,false,false,false,false,true,true,true,true,false,false,false,false,false,false,false,false],"id":35,"left_children":[1,3,5,7,-1,9,11,-1,13,-1,-1,15,17,19,21,23,-1,-1,-1,-1,-1,25,27,29,31,-1,-1,-1,-1,-1,-1,-1,-1],"loss_changes":[1.2372211E-5,6.7568786E-4,1.3299854E-4,7.6022436E-5,0E0,1.1530185E-4,4.7931677E-5,0E0,1.02305785E-5,0E0,0E0,3.1354188E-4,1.6481004E-4,5.4204547E-6,1.1749642E-5,3.5317265E-5,0E0,0E0,0E0,0E0,8.730058E-7,4.753509E-5,2.1954205E-4,3.7047248E-5,5.24062E-5,0E0,0E0,0E0,0E0,0E0,0E0,0E0,0E0],"parents":[2147483647,0,0,1,1,2,2,3,3,5,5,6,6,8,8,11,11,12,12,13,13,14,14,15,15,21,21,22,22,23,23,24,24],"right_children":[2,4,6,8,-1,10,12,-1,14,-1,-1,16,18,20,22,24,-1,-1,-1,-1,-1,26,28,30,32,-1,-1,-1,-1,-1,-1,-1,-1],"split_conditions":[1.8046467E-2,1.2556227E-2,7.53705E-2,-6.149145E-1,-5.5276663E-3,5.11485E-2,-4.1808125E-2,1.5071393E-3,-1.393016E-1,1.1032831E-4,3.3896866E-3,-9.6134774E-2,3.530039E-1,-3.0533388E-1,-4.5022595E-1,-1.53548E-1,3.7894787E-3,-2.3464842E-3,8.6698536E-4,1.487525E-4,-3.2513696E-4,-4.5188066E-1,-4.4785812E-1,1.9369918E-1,2.2510292E-1,-1.763875E-5,-1.2203204E-3,3.2038095E-3,2.0323108E-5,6.653175E-4,4.5984634E-6,-1.3043063E-3,6.735385E-4],"split_indices":[0,0,0,1,0,0,1,0,1,0,0,1,0,1,0,1,0,0,0,0,0,0,0,0,0,0,0,0,0,0,0,0,0],"split_type":[0,0,0,0,0,0,0,0,0,0,0,0,0,0,0,0,0,0,0,0,0,0,0,0,0,0,0,0,0,0,0,0,0],"sum_hessian":[4.99E2,3.11E2,1.88E2,3.1E2,1E0,3E0,1.85E2,2E0,3.08E2,2E0,1E0,1.81E2,4E0,1.4E1,2.94E2,1.8E2,1E0,2E0,2E0,2E0,1.2E1,2.15E2,7.9E1,1.76E2,4E0,2.13E2,2E0,1E0,7.8E1,7E0,1.69E2,3E0,1E0],"tree_param":{"num_deleted":"0","num_feature":"2","num_nodes":"33","size_leaf_vector":"0"}},{"base_weights":[2.0099886E-5,-7.990321E-5,1.8507801E-4,2.0558322E-5,-1.566172E-2,5.0227046E-3,8.004798E-5,4.019022E-3,-1.8328245E-5,2.942088E-4,9.604096E-3,1.4684047E-4,-2.3672078E-3,1.111782E-4,-1.9282688E-4,2.901215E-5,1.0736883E-2,-6.2572914E-3,2.311945E-3,-1.6650582E-3,1.7213913E-4,-1.54533535E-2,4.163023E-5,-1.6745366E-3,1.0716949E-4,6.195068E-4,-6.543942E-3,1.0383964E-2,5.239617E-5,-1.1908766E-4,2.5275538E-3,1.6307831E-5,-3.369458E-3,3.2507777E-3,3.3008077E-5],"categories":[],"categories_nodes":[],"categories_segments":[],"categories_sizes":[],"default_left":[true,true,true,true,false,true,true,false,true,false,false,true,true,true,true,true,false,false,false,true,true,false,true,true,true,false,false,false,false,false,false,false,false,false,false],"id":36,"left_children":[1,3,5,7,-1,9,11,-1,13,-1,-1,15,17,19,21,23,-1,-1,-1,25,27,-1,29,31,33,-1,-1,-1,-1,-1,-1,-1,-1,-1,-1],"loss_changes":[8.263951E-6,4.887184E-4,9.562811E-5,4.842997E-5,0E0,8.382676E-5,3.075084E-5,0E0,7.0044352E-6,0E0,0E0,2.2678934E-4,1.05477986E-4,1.9560643E-5,4.7293128E-4,2.4278675E-5,0E0,0E0,0E0,7.0930786E-5,2.1099928E-4,0E0,5.263974E-5,2.2981736E-5,4.045809E-5,0E0,0E0,0E0,0E0,0E0,0E0,0E0,0E0,0E0,0E0],"parents":[2147483647,0,0,1,1,2,2,3,3,5,5,6,6,8,8,11,11,12,12,13,13,14,14,15,15,19,19,20,20,22,22,23,23,24,24],"right_children":[2,4,6,8,-1,10,12,-1,14,-1,-1,16,18,20,22,24,-1,-1,-1,26,28,-1,30,32,34,-1,-1,-1,-1,-1,-1,-1,-1,-1,-1],"split_conditions":[1.8046467E-2,1.2556227E-2,7.53705E-2,-6.149145E-1,-4.6985163E-3,5.11485E-2,-4.1808125E-2,1.2057066E-3,7.104453E-1,8.826264E-5,2.881229E-3,-9.6134774E-2,3.530039E-1,-1.0339193E0,7.1756625E-1,1.4236835E-1,3.221065E-3,-1.8771875E-3,6.935835E-4,-1.0518323E0,-1.024586E0,-4.6360064E-3,-4.5033365E-1,-3.165903E-1,1.9369918E-1,1.8585206E-4,-1.9631826E-3,3.1151893E-3,1.5718852E-5,-3.5726298E-5,7.582662E-4,4.8923494E-6,-1.0108375E-3,9.752333E-4,9.902424E-6],"split_indices":[0,0,0,1,0,0,1,0,1,0,0,1,0,0,1,0,0,0,0,0,0,0,0,1,0,0,0,0,0,0,0,0,0,0,0],"split_type":[0,0,0,0,0,0,0,0,0,0,0,0,0,0,0,0,0,0,0,0,0,0,0,0,0,0,0,0,0,0,0,0,0,0,0],"sum_hessian":[4.99E2,3.11E2,1.88E2,3.1E2,1E0,3E0,1.85E2,2E0,3.08E2,2E0,1E0,1.81E2,4E0,1.77E2,1.31E2,1.8E2,1E0,2E0,2E0,5E0,1.72E2,1E0,1.3E2,7E0,1.73E2,4E0,1E0,1E0,1.71E2,1.23E2,7E0,4E0,3E0,3E0,1.7E2],"tree_param":{"num_deleted":"0","num_feature":"2","num_nodes":"35","size_leaf_vector":"0"}},{"base_weights":[1.193128E-5,-7.5319906E-5,1.5590186E-4,1.0048598E-5,-1.3312462E-2,4.2582513E-3,6.6841094E-5,3.2152336E-3,-2.1102222E-5,2.3536704E-4,8.163452E-3,-2.0557593E-4,5.771186E-4,1.2761635E-4,-2.0630869E-4,-1.3650022E-4,-4.4356452E-4,1.0559223E-4,1.5377402E-2,-3.9177303E-5,1.4324665E-2,-4.4089337E-3,-1.5165377E-5,